{"learner":{"attributes":{"scikit_learn":"{\"_estimator_type\": \"regressor\"}"},"feature_names":["close_lag_1","close_lag_2","close_lag_3","close_lag_4","close_lag_5"],"feature_types":["float","float","float","float","float"],"gradient_booster":{"model":{"gbtree_model_param":{"num_parallel_tree":"1","num_trees":"100"},"iteration_indptr":[0,1,2,3,4,5,6,7,8,9,10,11,12,13,14,15,16,17,18,19,20,21,22,23,24,25,26,27,28,29,30,31,32,33,34,35,36,37,38,39,40,41,42,43,44,45,46,47,48,49,50,51,52,53,54,55,56,57,58,59,60,61,62,63,64,65,66,67,68,69,70,71,72,73,74,75,76,77,78,79,80,81,82,83,84,85,86,87,88,89,90,91,92,93,94,95,96,97,98,99,100],"tree_info":[0,0,0,0,0,0,0,0,0,0,0,0,0,0,0,0,0,0,0,0,0,0,0,0,0,0,0,0,0,0,0,0,0,0,0,0,0,0,0,0,0,0,0,0,0,0,0,0,0,0,0,0,0,0,0,0,0,0,0,0,0,0,0,0,0,0,0,0,0,0,0,0,0,0,0,0,0,0,0,0,0,0,0,0,0,0,0,0,0,0,0,0,0,0,0,0,0,0,0,0],"trees":[{"base_weights":[1.0442302E-2,-1.9570761E5,1.9857577E5,-2.3810773E5,-6.70855E4,1.506099E5,4.385119E5,-2.5892664E5,-1.8380845E5,-1.033979E5,-3.0544143E4,5.2972293E4,1.7467062E5,3.3522676E4,4.9994694E5,-2.7524951E4,-2.4697705E5,-2.0871771E4,-1.6821967E4,-1.2916509E5,-8.262598E4,-4.3565457E4,-1.7315047E4,2.8830564E4,8.484022E4,1.472692E5,2.1971319E5,4.750976E4,5.4828082E4,-2.5416764E4,-2.3201982E4,-1.422E4,-1.0963388E4,-8.879981E3,-7.3833823E3,-4.947208E3,-3.7070115E3,-2.3549984E4,-1.084612E4,7.7935195E3,4.3610234E4,6.777401E3,9.830901E3,1.35804E5,1.6912473E4,1.9962387E4,2.367706E4,-2.7085134E3,-1.9066077E3,-1.4288259E3,-6.8158563E2,3.7513165E2,1.0568564E3,3.4417349E3,4.997769E3,1.2769939E4,1.4496647E4],"categories":[],"categories_nodes":[],"categories_segments":[],"categories_sizes":[],"default_left":[0,0,0,0,0,0,0,0,0,0,0,0,0,0,0,0,0,0,0,0,0,0,0,0,0,0,0,0,0,0,0,0,0,0,0,0,0,0,0,0,0,0,0,0,0,0,0,0,0,0,0,0,0,0,0,0,0],"id":0,"left_children":[1,3,5,7,9,11,13,15,17,19,21,23,25,-1,27,-1,29,-1,-1,31,33,35,37,39,41,43,45,-1,-1,-1,-1,-1,-1,-1,-1,-1,-1,47,49,51,53,-1,-1,55,-1,-1,-1,-1,-1,-1,-1,-1,-1,-1,-1,-1,-1],"loss_changes":[1.8164467E14,1.2821778E13,2.6634241E13,1.9533125E12,7.730805E11,4.536509E12,2.2817014E12,1.8110166E11,1.5671178E11,1.4615131E11,4.971787E10,2.9298314E11,1.883167E12,0E0,2.7770487E10,0E0,2.1369979E10,0E0,0E0,1.7251697E10,2.3999283E9,3.8058066E9,5.6735826E9,6.8062626E10,3.1264342E10,2.1959069E11,1.5319695E11,0E0,0E0,0E0,0E0,0E0,0E0,0E0,0E0,0E0,0E0,6.565847E8,9.29195E8,9.923446E8,5.8309673E9,0E0,0E0,2.901305E10,0E0,0E0,0E0,0E0,0E0,0E0,0E0,0E0,0E0,0E0,0E0,0E0,0E0],"parents":[2147483647,0,0,1,1,2,2,3,3,4,4,5,5,6,6,7,7,8,8,9,9,10,10,11,11,12,12,14,14,16,16,19,19,20,20,21,21,22,22,23,23,24,24,25,25,26,26,37,37,38,38,39,39,40,40,43,43],"right_children":[2,4,6,8,10,12,14,16,18,20,22,24,26,-1,28,-1,30,-1,-1,32,34,36,38,40,42,44,46,-1,-1,-1,-1,-1,-1,-1,-1,-1,-1,48,50,52,54,-1,-1,56,-1,-1,-1,-1,-1,-1,-1,-1,-1,-1,-1,-1,-1],"split_conditions":[3.463097E5,1.9761448E5,6.406438E5,1.2847615E5,2.83511E5,4.654316E5,7.782729E5,8.818146E4,1.6147262E5,2.439254E5,3.195064E5,4.0648012E5,5.345989E5,3.3522676E4,8.682498E5,-2.7524951E4,1.0704157E5,-2.0871771E4,-1.6821967E4,2.2300419E5,2.689109E5,3.0621353E5,3.3334416E5,3.6785012E5,4.334436E5,5.0441753E5,5.6795194E5,4.750976E4,5.4828082E4,-2.5416764E4,-2.3201982E4,-1.422E4,-1.0963388E4,-8.879981E3,-7.3833823E3,-4.947208E3,-3.7070115E3,3.267493E5,3.3858316E5,3.5752453E5,3.9347522E5,6.777401E3,9.830901E3,4.874153E5,1.6912473E4,1.9962387E4,2.367706E4,-2.7085134E3,-1.9066077E3,-1.4288259E3,-6.8158563E2,3.7513165E2,1.0568564E3,3.4417349E3,4.997769E3,1.2769939E4,1.4496647E4],"split_indices":[0,0,0,0,0,0,0,0,0,0,0,0,0,0,0,0,1,0,0,2,0,0,0,0,0,0,0,0,0,0,0,0,0,0,0,0,0,0,0,0,0,0,0,0,0,0,0,0,0,0,0,0,0,0,0,0,0],"split_type":[0,0,0,0,0,0,0,0,0,0,0,0,0,0,0,0,0,0,0,0,0,0,0,0,0,0,0,0,0,0,0,0,0,0,0,0,0,0,0,0,0,0,0,0,0,0,0,0,0,0,0,0,0,0,0,0,0],"sum_hessian":[4.672E3,2.353E3,2.319E3,1.769E3,5.84E2,1.934E3,3.85E2,1.276E3,4.93E2,2.92E2,2.92E2,3.83E2,1.551E3,1.46E2,2.39E2,5.3E2,7.46E2,1.85E2,3.08E2,1.28E2,1.64E2,1.46E2,1.46E2,2.19E2,1.64E2,9.67E2,5.84E2,1.65E2,7.4E1,4.93E2,2.53E2,7.3E1,5.5E1,9.1E1,7.3E1,7.3E1,7.3E1,7.3E1,7.3E1,9.1E1,1.28E2,7.5E1,8.9E1,6.39E2,3.28E2,2.74E2,3.1E2,3.8E1,3.5E1,3.8E1,3.5E1,3.8E1,5.3E1,5.5E1,7.3E1,3.47E2,2.92E2],"tree_param":{"num_deleted":"0","num_feature":"5","num_nodes":"57","size_leaf_vector":"1"}},{"base_weights":[1.70167E1,-1.7620936E5,1.7882602E5,-2.1988617E5,-7.497043E4,1.3558066E5,3.951497E5,-2.3540042E5,-1.7907472E5,-1.2672299E5,-4.2616395E4,4.2355875E4,1.5599645E5,3.0229188E4,4.5037866E5,-2.4823855E4,-2.2530967E4,-1.959238E4,-1.6035643E4,-1.389339E4,-1.0118923E4,-7.009273E4,-2.5652426E4,1.6223208E4,6.107088E4,1.2894612E5,1.9399161E5,4.2763668E4,4.947092E4,-7.358747E3,-5.5825063E3,-3.5621316E4,-1.3911645E4,7.0297427E3,3.1037057E4,4.872843E3,7.5432656E3,1.175127E5,1.4367081E5,1.7424033E4,2.1108545E4,-3.8366511E3,-2.6422996E3,-1.7920186E3,-8.1608344E2,3.3858102E2,9.531292E2,2.30799E3,3.481659E3,1.0780026E4,1.2225452E4,1.3530393E4,1.5128505E4],"categories":[],"categories_nodes":[],"categories_segments":[],"categories_sizes":[],"default_left":[0,0,0,0,0,0,0,0,0,0,0,0,0,0,0,0,0,0,0,0,0,0,0,0,0,0,0,0,0,0,0,0,0,0,0,0,0,0,0,0,0,0,0,0,0,0,0,0,0,0,0,0,0],"id":1,"left_children":[1,3,5,7,9,11,13,15,17,19,21,23,25,-1,27,-1,-1,-1,-1,-1,-1,29,31,33,35,37,39,-1,-1,-1,-1,41,43,45,47,-1,-1,49,51,-1,-1,-1,-1,-1,-1,-1,-1,-1,-1,-1,-1,-1,-1],"loss_changes":[1.4728176E14,1.039242E13,2.1650016E13,9.9875606E11,1.1851011E12,3.6761984E12,1.8434344E12,9.797475E10,1.1271353E11,7.106016E10,2.0282324E11,1.696957E11,1.6060745E12,0E0,3.040451E10,0E0,0E0,0E0,0E0,0E0,0E0,4.2188145E9,3.1457067E10,1.980183E10,3.2308003E10,1.39685E11,1.8537775E11,0E0,0E0,0E0,0E0,2.6981663E9,2.7814052E9,8.063529E8,8.8060314E8,0E0,0E0,1.1183587E10,5.140644E9,0E0,0E0,0E0,0E0,0E0,0E0,0E0,0E0,0E0,0E0,0E0,0E0,0E0,0E0],"parents":[2147483647,0,0,1,1,2,2,3,3,4,4,5,5,6,6,7,7,8,8,9,9,10,10,11,11,12,12,14,14,21,21,22,22,23,23,24,24,25,25,26,26,31,31,32,32,33,33,34,34,37,37,38,38],"right_children":[2,4,6,8,10,12,14,16,18,20,22,24,26,-1,28,-1,-1,-1,-1,-1,-1,30,32,34,36,38,40,-1,-1,-1,-1,42,44,46,48,-1,-1,50,52,-1,-1,-1,-1,-1,-1,-1,-1,-1,-1,-1,-1,-1,-1],"split_conditions":[3.463097E5,1.8540064E5,6.3991356E5,1.1991609E5,2.5358094E5,4.548203E5,7.782729E5,8.665621E4,1.5196288E5,2.1381488E5,2.9718703E5,3.9347522E5,5.283853E5,3.0229188E4,8.6792006E5,-2.4823855E4,-2.2530967E4,-1.959238E4,-1.6035643E4,-1.389339E4,-1.0118923E4,2.788224E5,3.225341E5,3.6785012E5,4.18908E5,4.961635E5,5.6244175E5,4.2763668E4,4.947092E4,-7.358747E3,-5.5825063E3,3.1609503E5,3.3613638E5,3.5752453E5,3.826453E5,4.872843E3,7.5432656E3,4.7688303E5,5.0978803E5,1.7424033E4,2.1108545E4,-3.8366511E3,-2.6422996E3,-1.7920186E3,-8.1608344E2,3.3858102E2,9.531292E2,2.30799E3,3.481659E3,1.0780026E4,1.2225452E4,1.3530393E4,1.5128505E4],"split_indices":[0,0,1,0,0,0,0,0,0,3,0,0,0,0,1,0,0,0,0,0,0,0,0,0,0,0,0,0,0,0,0,0,0,0,0,0,0,0,0,0,0,0,0,0,0,0,0,0,0,0,0,0,0],"split_type":[0,0,0,0,0,0,0,0,0,0,0,0,0,0,0,0,0,0,0,0,0,0,0,0,0,0,0,0,0,0,0,0,0,0,0,0,0,0,0,0,0,0,0,0,0,0,0,0,0,0,0,0,0],"sum_hessian":[4.672E3,2.353E3,2.319E3,1.643E3,7.1E2,1.934E3,3.85E2,1.187E3,4.56E2,2.72E2,4.38E2,3.48E2,1.586E3,1.46E2,2.39E2,5.12E2,6.75E2,2.35E2,2.21E2,1.81E2,9.1E1,1.66E2,2.72E2,1.46E2,2.02E2,9.29E2,6.57E2,1.65E2,7.4E1,1.3E2,3.6E1,1.46E2,1.26E2,9.1E1,5.5E1,1.11E2,9.1E1,5.28E2,4.01E2,3.1E2,3.47E2,1.1E2,3.6E1,7.3E1,5.3E1,3.8E1,5.3E1,2E1,3.5E1,1.81E2,3.47E2,2E2,2.01E2],"tree_param":{"num_deleted":"0","num_feature":"5","num_nodes":"53","size_leaf_vector":"1"}},{"base_weights":[3.7387093E1,-1.574261E5,1.6228906E5,-1.9159512E5,-4.831375E4,1.2427614E5,3.6172575E5,-2.077127E5,-1.4062792E5,-7.8437266E4,-2.3265338E4,8.782898E4,1.6653003E5,2.667799E4,4.011725E5,-2.1703234E5,-1.8861889E4,-1.5493468E4,-1.2971034E4,-9.5185664E4,-6.5256934E4,-3.3977766E4,-1.0767123E4,3.5384555E4,1.0822735E5,1.4381023E5,1.8808742E5,3.6863094E4,4.3037777E4,-2.2569912E4,-2.0978678E4,-1.0846413E4,-8.708069E3,-6.887466E3,-5.7750957E3,-3.903866E3,-2.7089908E4,-1.5214737E4,-2.9903154E3,1.0473793E4,4.691569E4,9.7898945E4,1.1689914E4,1.3285942E4,1.4983588E4,1.7527406E4,2.0347117E4,-7.6233905E2,-2.7252144E3,-1.8723727E3,-1.2513713E3,-5.359771E2,1.6565642E2,7.45783E2,2.060272E3,3.9202395E3,5.9519375E3,7.49828E3,1.0046614E4],"categories":[],"categories_nodes":[],"categories_segments":[],"categories_sizes":[],"default_left":[0,0,0,0,0,0,0,0,0,0,0,0,0,0,0,0,0,0,0,0,0,0,0,0,0,0,0,0,0,0,0,0,0,0,0,0,0,0,0,0,0,0,0,0,0,0,0,0,0,0,0,0,0,0,0,0,0,0,0],"id":2,"left_children":[1,3,5,7,9,11,13,15,17,19,21,23,25,-1,27,29,-1,-1,-1,31,33,35,37,39,41,43,45,-1,-1,-1,-1,-1,-1,-1,-1,-1,47,49,51,53,55,57,-1,-1,-1,-1,-1,-1,-1,-1,-1,-1,-1,-1,-1,-1,-1,-1,-1],"loss_changes":[1.1941468E14,8.834181E12,1.7406898E13,1.4543581E12,4.2600287E11,2.9653415E12,1.2712474E12,2.0285332E11,4.816057E10,5.0521047E10,4.127277E10,1.1098123E12,4.1130394E11,0E0,8.654946E10,1.0045358E10,0E0,0E0,0E0,2.5009193E9,1.4155776E7,4.7638446E9,4.9697976E9,8.3672695E10,5.564059E10,9.125757E9,5.4221865E10,0E0,0E0,0E0,0E0,0E0,0E0,0E0,0E0,0E0,2.594816E7,6.376612E8,6.0344986E8,2.717905E9,1.710991E10,1.2939428E10,0E0,0E0,0E0,0E0,0E0,0E0,0E0,0E0,0E0,0E0,0E0,0E0,0E0,0E0,0E0,0E0,0E0],"parents":[2147483647,0,0,1,1,2,2,3,3,4,4,5,5,6,6,7,7,8,8,9,9,10,10,11,11,12,12,14,14,15,15,19,19,20,20,21,21,22,22,23,23,24,24,25,25,26,26,36,36,37,37,38,38,39,39,40,40,41,41],"right_children":[2,4,6,8,10,12,14,16,18,20,22,24,26,-1,28,30,-1,-1,-1,32,34,36,38,40,42,44,46,-1,-1,-1,-1,-1,-1,-1,-1,-1,48,50,52,54,56,58,-1,-1,-1,-1,-1,-1,-1,-1,-1,-1,-1,-1,-1,-1,-1,-1,-1],"split_conditions":[3.5170303E5,2.0145416E5,6.592402E5,1.3510789E5,2.83511E5,5.077105E5,7.253847E5,9.90796E4,1.7398375E5,2.5358094E5,3.225341E5,4.3644528E5,5.520451E5,2.667799E4,8.375068E5,8.017305E4,-1.8861889E4,-1.5493468E4,-1.2971034E4,2.2392217E5,2.7197603E5,3.083578E5,3.3858316E5,3.8226962E5,4.8309744E5,5.2343888E5,5.826616E5,3.6863094E4,4.3037777E4,-2.2569912E4,-2.0978678E4,-1.0846413E4,-8.708069E3,-6.887466E3,-5.7750957E3,-3.903866E3,2.971405E5,3.3102847E5,3.463097E5,3.6785012E5,4.1325447E5,4.548203E5,1.1689914E4,1.3285942E4,1.4983588E4,1.7527406E4,2.0347117E4,-7.6233905E2,-2.7252144E3,-1.8723727E3,-1.2513713E3,-5.359771E2,1.6565642E2,7.45783E2,2.060272E3,3.9202395E3,5.9519375E3,7.49828E3,1.0046614E4],"split_indices":[0,1,0,0,0,0,2,0,0,0,0,0,0,0,0,0,0,0,0,0,0,0,0,2,0,0,0,0,0,0,0,0,0,0,0,0,1,0,0,0,0,0,0,0,0,0,0,0,0,0,0,0,0,0,0,0,0,0,0],"split_type":[0,0,0,0,0,0,0,0,0,0,0,0,0,0,0,0,0,0,0,0,0,0,0,0,0,0,0,0,0,0,0,0,0,0,0,0,0,0,0,0,0,0,0,0,0,0,0,0,0,0,0,0,0,0,0,0,0,0,0],"sum_hessian":[4.672E3,2.371E3,2.301E3,1.805E3,5.66E2,1.934E3,3.67E2,1.369E3,4.36E2,2.56E2,3.1E2,1.04E3,8.94E2,1.1E2,2.57E2,9.13E2,4.56E2,1.83E2,2.53E2,1.1E2,1.46E2,1.66E2,1.44E2,2.92E2,7.48E2,4.39E2,4.55E2,1.28E2,1.29E2,4.02E2,5.11E2,3.7E1,7.3E1,9.3E1,5.3E1,9.3E1,7.3E1,9.1E1,5.3E1,9.3E1,1.99E2,3.47E2,4.01E2,1.64E2,2.75E2,2.55E2,2E2,1E0,7.2E1,3.7E1,5.4E1,3.5E1,1.8E1,7.3E1,2E1,1.26E2,7.3E1,3.8E1,3.09E2],"tree_param":{"num_deleted":"0","num_feature":"5","num_nodes":"59","size_leaf_vector":"1"}},{"base_weights":[5.09073E1,-1.4173997E5,1.4615339E5,-1.7248983E5,-4.354597E4,1.0990558E5,3.1617428E5,-1.8657912E5,-1.25258914E5,-7.069149E4,-2.09738E4,7.388122E4,1.4187761E5,2.347092E4,3.6136494E5,-1.9443261E5,-1.6688195E4,-1.3648658E4,-1.1602196E4,-8.831128E3,-6.0331902E4,-2.9572746E4,-8.282633E3,3.1889365E4,9.4162695E4,1.2342985E5,1.6372869E5,3.386569E4,3.9738043E4,-2.0525854E4,-1.8914842E4,-6.502876E3,-5.367728E3,-3.5176316E4,-2.3525916E4,-1.11125E4,-5.266241E2,9.419679E3,4.229067E4,8.178259E4,9.867829E3,1.1274084E4,1.3118805E4,1.5389799E4,1.7361951E4,-3.9373176E3,-3.1625354E3,-2.692777E3,-2.07478E3,-1.224587E3,-6.363405E2,-2.7602792E2,1.4996266E2,6.722127E2,1.8476783E3,3.3901333E3,5.177053E3,6.7676772E3,8.541316E3],"categories":[],"categories_nodes":[],"categories_segments":[],"categories_sizes":[],"default_left":[0,0,0,0,0,0,0,0,0,0,0,0,0,0,0,0,0,0,0,0,0,0,0,0,0,0,0,0,0,0,0,0,0,0,0,0,0,0,0,0,0,0,0,0,0,0,0,0,0,0,0,0,0,0,0,0,0,0,0],"id":3,"left_children":[1,3,5,7,9,11,13,15,17,19,21,23,25,-1,27,29,-1,-1,-1,-1,31,33,35,37,39,41,43,-1,-1,-1,-1,-1,-1,45,47,49,51,53,55,57,-1,-1,-1,-1,-1,-1,-1,-1,-1,-1,-1,-1,-1,-1,-1,-1,-1,-1,-1],"loss_changes":[9.682658E13,7.154631E12,1.4152211E13,1.1784317E12,3.459371E11,2.1767347E12,1.4024956E12,1.8241867E11,2.7515159E10,4.1583116E10,3.3694687E10,7.592293E11,3.8490918E11,0E0,7.642651E10,1.7637048E10,0E0,0E0,0E0,0E0,1.6667116E9,5.440946E9,2.7816028E9,6.807988E10,2.563978E10,3.0736908E10,1.7717789E10,0E0,0E0,0E0,0E0,0E0,0E0,1.5568077E8,3.107758E8,4.2264576E8,1.6254749E8,2.1724063E9,1.4150861E10,2.7719107E9,0E0,0E0,0E0,0E0,0E0,0E0,0E0,0E0,0E0,0E0,0E0,0E0,0E0,0E0,0E0,0E0,0E0,0E0,0E0],"parents":[2147483647,0,0,1,1,2,2,3,3,4,4,5,5,6,6,7,7,8,8,9,9,10,10,11,11,12,12,14,14,15,15,20,20,21,21,22,22,23,23,24,24,25,25,26,26,33,33,34,34,35,35,36,36,37,37,38,38,39,39],"right_children":[2,4,6,8,10,12,14,16,18,20,22,24,26,-1,28,30,-1,-1,-1,-1,32,34,36,38,40,42,44,-1,-1,-1,-1,-1,-1,46,48,50,52,54,56,58,-1,-1,-1,-1,-1,-1,-1,-1,-1,-1,-1,-1,-1,-1,-1,-1,-1,-1,-1],"split_conditions":[3.5170303E5,2.0147873E5,6.102386E5,1.3972364E5,2.83511E5,4.9784606E5,7.253847E5,1.03262734E5,1.7835917E5,2.439254E5,3.267493E5,4.3644528E5,5.4745275E5,2.347092E4,8.5510294E5,7.794322E4,-1.6688195E4,-1.3648658E4,-1.1602196E4,-8.831128E3,2.689109E5,3.083578E5,3.431039E5,3.826453E5,4.7286097E5,5.163113E5,5.7576075E5,3.386569E4,3.9738043E4,-2.0525854E4,-1.8914842E4,-6.502876E3,-5.367728E3,3.018171E5,3.1609503E5,3.3858316E5,3.463097E5,3.6785012E5,4.0648012E5,4.548203E5,9.867829E3,1.1274084E4,1.3118805E4,1.5389799E4,1.7361951E4,-3.9373176E3,-3.1625354E3,-2.692777E3,-2.07478E3,-1.224587E3,-6.363405E2,-2.7602792E2,1.4996266E2,6.722127E2,1.8476783E3,3.3901333E3,5.177053E3,6.7676772E3,8.541316E3],"split_indices":[0,0,2,3,0,0,2,0,0,0,0,0,0,0,0,0,0,0,0,0,0,0,0,0,0,0,0,0,0,0,0,0,0,0,0,0,0,0,0,0,0,0,0,0,0,0,0,0,0,0,0,0,0,0,0,0,0,0,0],"split_type":[0,0,0,0,0,0,0,0,0,0,0,0,0,0,0,0,0,0,0,0,0,0,0,0,0,0,0,0,0,0,0,0,0,0,0,0,0,0,0,0,0,0,0,0,0,0,0,0,0,0,0,0,0,0,0,0,0,0,0],"sum_hessian":[4.672E3,2.371E3,2.301E3,1.805E3,5.66E2,1.898E3,4.03E2,1.388E3,4.17E2,2.56E2,3.1E2,8.94E2,1.004E3,1.46E2,2.57E2,9.86E2,4.02E2,1.82E2,2.35E2,9.2E1,1.64E2,1.84E2,1.26E2,2.92E2,6.02E2,5.48E2,4.56E2,1.64E2,9.3E1,3.11E2,6.75E2,9.1E1,7.3E1,9.3E1,9.1E1,9.2E1,3.4E1,9.3E1,1.99E2,1.66E2,4.36E2,2.37E2,3.11E2,2.37E2,2.19E2,3.8E1,5.5E1,3.7E1,5.4E1,7.3E1,1.9E1,1.6E1,1.8E1,7.3E1,2E1,1.08E2,9.1E1,3.8E1,1.28E2],"tree_param":{"num_deleted":"0","num_feature":"5","num_nodes":"59","size_leaf_vector":"1"}},{"base_weights":[6.1767067E1,-1.2761485E5,1.316208E5,-1.5758552E5,-4.5911543E4,1.0072988E5,2.9369222E5,-1.71292E5,-1.24510664E5,-7.267942E4,-2.0231145E4,7.0684125E4,1.3442492E5,2.2432432E4,3.2975372E5,-1.8005018E4,-1.6252596E4,-1.3991276E4,-1.12521E4,-9.564232E3,-6.005376E4,-3.1549676E4,-1.0926974E4,3.0635652E4,8.8165875E4,1.1748102E5,1.5395342E5,3.120864E4,3.6446066E4,-6.854478E3,-5.2322144E3,-4.1336445E3,-2.8003188E4,-1.6528441E4,-5.328505E3,1.3057365E4,4.2727344E4,8.143079E4,9.564972E3,1.0862982E4,1.2407041E4,1.4676169E4,1.7288686E4,-5.895828E2,-2.8150564E3,-1.8710742E3,-1.2735249E3,-8.163925E2,-4.775652E1,6.0589923E2,2.2072048E3,3.5684902E3,5.280878E3,6.9207383E3,8.318956E3],"categories":[],"categories_nodes":[],"categories_segments":[],"categories_sizes":[],"default_left":[0,0,0,0,0,0,0,0,0,0,0,0,0,0,0,0,0,0,0,0,0,0,0,0,0,0,0,0,0,0,0,0,0,0,0,0,0,0,0,0,0,0,0,0,0,0,0,0,0,0,0,0,0,0,0],"id":4,"left_children":[1,3,5,7,9,11,13,15,17,19,21,23,25,-1,27,-1,-1,-1,-1,-1,29,31,33,35,37,39,41,-1,-1,-1,-1,-1,43,45,47,49,51,53,-1,-1,-1,-1,-1,-1,-1,-1,-1,-1,-1,-1,-1,-1,-1,-1,-1],"loss_changes":[7.850923E13,5.801083E12,1.1495455E13,7.652256E11,4.370972E11,1.9494768E12,8.465846E11,6.4705528E10,7.880573E10,8.4711965E10,3.4091475E10,7.1491964E11,2.8335355E11,0E0,3.3420214E10,0E0,0E0,0E0,0E0,0E0,9.806021E9,3.9446282E9,5.5880253E9,6.5970635E10,2.8149023E10,1.5217459E10,3.1815893E10,0E0,0E0,0E0,0E0,0E0,1.956823E8,5.0672435E8,1.2615109E9,8.0046326E9,1.1250106E10,2.4549786E9,0E0,0E0,0E0,0E0,0E0,0E0,0E0,0E0,0E0,0E0,0E0,0E0,0E0,0E0,0E0,0E0,0E0],"parents":[2147483647,0,0,1,1,2,2,3,3,4,4,5,5,6,6,7,7,8,8,9,9,10,10,11,11,12,12,14,14,20,20,21,21,22,22,23,23,24,24,25,25,26,26,32,32,33,33,34,34,35,35,36,36,37,37],"right_children":[2,4,6,8,10,12,14,16,18,20,22,24,26,-1,28,-1,-1,-1,-1,-1,30,32,34,36,38,40,42,-1,-1,-1,-1,-1,44,46,48,50,52,54,-1,-1,-1,-1,-1,-1,-1,-1,-1,-1,-1,-1,-1,-1,-1,-1,-1],"split_conditions":[3.5170303E5,1.9336111E5,6.592402E5,1.2370964E5,2.788224E5,5.062457E5,7.7808625E5,9.0814766E4,1.5673498E5,2.2331631E5,3.1609503E5,4.419149E5,5.5662125E5,2.2432432E4,8.6792006E5,-1.8005018E4,-1.6252596E4,-1.3991276E4,-1.12521E4,-9.564232E3,2.602779E5,2.9718703E5,3.3334416E5,3.9347522E5,4.862929E5,5.26103E5,5.926214E5,3.120864E4,3.6446066E4,-6.854478E3,-5.2322144E3,-4.1336445E3,2.832064E5,3.267493E5,3.431039E5,3.6785012E5,4.18908E5,4.654316E5,9.564972E3,1.0862982E4,1.2407041E4,1.4676169E4,1.7288686E4,-5.895828E2,-2.8150564E3,-1.8710742E3,-1.2735249E3,-8.163925E2,-4.775652E1,6.0589923E2,2.2072048E3,3.5684902E3,5.280878E3,6.9207383E3,8.318956E3],"split_indices":[0,0,0,0,0,0,1,0,0,1,0,0,0,0,1,0,0,0,0,0,0,0,0,0,0,0,0,0,0,0,0,0,2,0,0,0,0,0,0,0,0,0,0,0,0,0,0,0,0,0,0,0,0,0,0],"split_type":[0,0,0,0,0,0,0,0,0,0,0,0,0,0,0,0,0,0,0,0,0,0,0,0,0,0,0,0,0,0,0,0,0,0,0,0,0,0,0,0,0,0,0,0,0,0,0,0,0,0,0,0,0,0,0],"sum_hessian":[4.672E3,2.371E3,2.301E3,1.734E3,6.37E2,1.934E3,3.67E2,1.223E3,5.11E2,3.11E2,3.26E2,1.024E3,9.1E2,1.28E2,2.39E2,6.02E2,6.21E2,2.19E2,2.92E2,1.08E2,2.03E2,1.46E2,1.8E2,3.12E2,7.12E2,4.91E2,4.19E2,1.65E2,7.4E1,9.3E1,1.1E2,3.6E1,1.1E2,8.9E1,9.1E1,1.28E2,1.84E2,3.81E2,3.31E2,2.17E2,2.74E2,3.1E2,1.09E2,1E0,1.09E2,5.4E1,3.5E1,5.7E1,3.4E1,7.3E1,5.5E1,1.11E2,7.3E1,5.3E1,3.28E2],"tree_param":{"num_deleted":"0","num_feature":"5","num_nodes":"55","size_leaf_vector":"1"}},{"base_weights":[7.4654724E1,-1.15782305E5,1.17629484E5,-1.450341E5,-5.0378754E4,8.824817E4,2.567541E5,-1.5606594E5,-1.20726375E5,-8.1998945E4,-2.6788637E4,3.1350979E4,1.02433484E5,1.9039266E4,2.935695E5,-1.6434365E4,-1.5006706E4,-1.3053112E4,-1.0711949E4,-9.035944E3,-6.173738E3,-4.4985383E4,-1.6892264E4,1.4008617E4,4.7235906E4,8.773757E4,1.30107E5,2.5999527E4,3.103076E4,-4.819095E3,-3.923561E3,-2.2599854E4,-8.097359E3,4.68247E3,2.2987309E4,3.771727E4,5.8450715E4,7.874256E4,9.830859E4,1.2211662E4,1.4081109E4,-2.6008936E3,-1.8056133E3,-1.00162445E3,-3.9280582E2,1.8943631E2,6.609391E2,1.4405387E3,2.5112078E3,3.2848508E3,4.175349E3,5.875804E3,1.5549485E3,7.334732E3,8.26182E3,9.169951E3,1.0398095E4],"categories":[],"categories_nodes":[],"categories_segments":[],"categories_sizes":[],"default_left":[0,0,0,0,0,0,0,0,0,0,0,0,0,0,0,0,0,0,0,0,0,0,0,0,0,0,0,0,0,0,0,0,0,0,0,0,0,0,0,0,0,0,0,0,0,0,0,0,0,0,0,0,0,0,0,0,0],"id":5,"left_children":[1,3,5,7,9,11,13,15,17,19,21,23,25,-1,27,-1,-1,-1,-1,-1,-1,29,31,33,35,37,39,-1,-1,-1,-1,41,43,45,47,49,51,53,55,-1,-1,-1,-1,-1,-1,-1,-1,-1,-1,-1,-1,-1,-1,-1,-1,-1,-1],"loss_changes":[6.365775E13,4.496298E12,9.46072E12,4.1718435E11,5.4158203E11,1.5440093E12,9.311271E11,3.0704402E10,5.4324625E10,4.710387E10,7.469433E10,1.0512348E11,6.1244283E11,0E0,6.4309166E10,0E0,0E0,0E0,0E0,0E0,0E0,8.186102E8,1.352097E10,1.5383634E10,1.9145294E10,8.7821386E10,2.8135391E10,0E0,0E0,0E0,0E0,2.0862157E9,8.327004E8,4.8174566E8,1.3523067E9,8.097628E8,2.7295744E8,5.3988557E9,7.634682E9,0E0,0E0,0E0,0E0,0E0,0E0,0E0,0E0,0E0,0E0,0E0,0E0,0E0,0E0,0E0,0E0,0E0,0E0],"parents":[2147483647,0,0,1,1,2,2,3,3,4,4,5,5,6,6,7,7,8,8,9,9,10,10,11,11,12,12,14,14,21,21,22,22,23,23,24,24,25,25,26,26,31,31,32,32,33,33,34,34,35,35,36,36,37,37,38,38],"right_children":[2,4,6,8,10,12,14,16,18,20,22,24,26,-1,28,-1,-1,-1,-1,-1,-1,30,32,34,36,38,40,-1,-1,-1,-1,42,44,46,48,50,52,54,56,-1,-1,-1,-1,-1,-1,-1,-1,-1,-1,-1,-1,-1,-1,-1,-1,-1,-1],"split_conditions":[3.463097E5,1.841462E5,6.149178E5,1.13045016E5,2.602779E5,4.654316E5,7.2760556E5,8.186117E4,1.4857219E5,2.2392217E5,2.9718703E5,4.0032647E5,5.38121E5,1.9039266E4,8.26457E5,-1.6434365E4,-1.5006706E4,-1.3053112E4,-1.0711949E4,-9.035944E3,-6.173738E3,2.7548397E5,3.267493E5,3.6785012E5,4.334436E5,4.9860056E5,5.7576075E5,2.5999527E4,3.103076E4,-4.819095E3,-3.923561E3,3.116719E5,3.3858316E5,3.5752453E5,3.823413E5,4.1205025E5,4.7676744E5,4.809908E5,5.163113E5,1.2211662E4,1.4081109E4,-2.6008936E3,-1.8056133E3,-1.00162445E3,-3.9280582E2,1.8943631E2,6.609391E2,1.4405387E3,2.5112078E3,3.2848508E3,4.175349E3,5.875804E3,1.5549485E3,7.334732E3,8.26182E3,9.169951E3,1.0398095E4],"split_indices":[0,0,0,0,0,0,0,0,0,0,0,0,0,0,0,0,0,0,0,0,0,0,0,0,0,0,0,0,0,0,0,0,0,0,1,2,1,0,0,0,0,0,0,0,0,0,0,0,0,0,0,0,0,0,0,0,0],"split_type":[0,0,0,0,0,0,0,0,0,0,0,0,0,0,0,0,0,0,0,0,0,0,0,0,0,0,0,0,0,0,0,0,0,0,0,0,0,0,0,0,0,0,0,0,0,0,0,0,0,0,0,0,0,0,0,0,0],"sum_hessian":[4.672E3,2.353E3,2.319E3,1.625E3,7.28E2,1.916E3,4.03E2,1.114E3,5.11E2,3.1E2,4.18E2,3.83E2,1.533E3,1.46E2,2.57E2,4.57E2,6.57E2,2.92E2,2.19E2,2.17E2,9.3E1,1.46E2,2.72E2,1.84E2,1.99E2,1.004E3,5.29E2,9.1E1,1.66E2,8.9E1,5.7E1,1.64E2,1.08E2,9.1E1,9.3E1,1.1E2,8.9E1,5.47E2,4.57E2,3.1E2,2.19E2,9.1E1,7.3E1,7.3E1,3.5E1,3.8E1,5.3E1,2E1,7.3E1,5.4E1,5.6E1,8.8E1,1E0,2.37E2,3.1E2,2.19E2,2.38E2],"tree_param":{"num_deleted":"0","num_feature":"5","num_nodes":"57","size_leaf_vector":"1"}},{"base_weights":[8.2654816E1,-1.04240164E5,1.05934305E5,-1.2914443E5,-4.1972652E4,8.1661125E4,2.427847E5,-1.3997278E5,-1.0542958E5,-6.9628266E4,-2.3202676E4,5.633606E4,1.0997551E5,1.9234527E5,2.7112816E5,-1.4750156E4,-1.3410775E4,-1.1526479E4,-9.293106E3,-7.9430493E3,-5.447017E3,-3.815177E4,-1.4376724E4,2.1981527E4,7.083527E4,9.511426E4,1.2638043E5,1.74952E4,2.1189451E4,2.5758469E4,3.0557629E4,-4.1056846E3,-2.8905234E3,-1.9525982E4,-7.3004136E3,5.8759526E3,3.0890742E4,6.2109082E4,7.54162E4,8.936598E3,1.0181503E4,1.2098111E4,1.5137733E4,-2.1933005E3,-1.5100905E3,-9.028154E2,-3.5461572E2,4.2234668E2,1.2835609E3,2.5769153E3,3.9263054E3,4.969925E3,6.4026694E3,7.06119E3,7.861275E3],"categories":[],"categories_nodes":[],"categories_segments":[],"categories_sizes":[],"default_left":[0,0,0,0,0,0,0,0,0,0,0,0,0,0,0,0,0,0,0,0,0,0,0,0,0,0,0,0,0,0,0,0,0,0,0,0,0,0,0,0,0,0,0,0,0,0,0,0,0,0,0,0,0,0,0],"id":6,"left_children":[1,3,5,7,9,11,13,15,17,19,21,23,25,27,29,-1,-1,-1,-1,-1,-1,31,33,35,37,39,41,-1,-1,-1,-1,-1,-1,43,45,47,49,51,53,-1,-1,-1,-1,-1,-1,-1,-1,-1,-1,-1,-1,-1,-1,-1,-1],"loss_changes":[5.161378E13,3.6449886E12,7.6867374E12,4.1691382E11,3.482545E11,1.4078538E12,4.4679194E11,3.1042044E10,5.4561604E10,3.6088054E10,5.2623327E10,5.1797557E11,2.1471166E11,6.792151E9,2.4394072E10,0E0,0E0,0E0,0E0,0E0,0E0,2.815656E9,9.149075E9,4.444324E10,2.4616894E10,9.851896E9,4.0936407E10,0E0,0E0,0E0,0E0,0E0,0E0,1.2345303E9,6.750008E8,1.2338716E9,7.5641487E9,2.9575741E9,1.7592484E9,0E0,0E0,0E0,0E0,0E0,0E0,0E0,0E0,0E0,0E0,0E0,0E0,0E0,0E0,0E0,0E0],"parents":[2147483647,0,0,1,1,2,2,3,3,4,4,5,5,6,6,7,7,8,8,9,9,10,10,11,11,12,12,13,13,14,14,21,21,22,22,23,23,24,24,25,25,26,26,33,33,34,34,35,35,36,36,37,37,38,38],"right_children":[2,4,6,8,10,12,14,16,18,20,22,24,26,28,30,-1,-1,-1,-1,-1,-1,32,34,36,38,40,42,-1,-1,-1,-1,-1,-1,44,46,48,50,52,54,-1,-1,-1,-1,-1,-1,-1,-1,-1,-1,-1,-1,-1,-1,-1,-1],"split_conditions":[3.463097E5,1.8869302E5,6.671199E5,1.1663121E5,2.629732E5,5.062457E5,8.002792E5,8.452688E4,1.5503678E5,2.2331631E5,3.018171E5,4.3622706E5,5.565743E5,6.9433806E5,8.8941725E5,-1.4750156E4,-1.3410775E4,-1.1526479E4,-9.293106E3,-7.9430493E3,-5.447017E3,2.83511E5,3.267493E5,3.8226962E5,4.7876828E5,5.3101475E5,5.998347E5,1.74952E4,2.1189451E4,2.5758469E4,3.0557629E4,-4.1056846E3,-2.8905234E3,3.1609503E5,3.3858316E5,3.6785012E5,4.1325447E5,4.548203E5,4.891659E5,8.936598E3,1.0181503E4,1.2098111E4,1.5137733E4,-2.1933005E3,-1.5100905E3,-9.028154E2,-3.5461572E2,4.2234668E2,1.2835609E3,2.5769153E3,3.9263054E3,4.969925E3,6.4026694E3,7.06119E3,7.861275E3],"split_indices":[0,0,0,0,0,0,0,0,4,1,0,1,1,0,0,0,0,0,0,0,0,0,0,2,0,0,0,0,0,0,0,0,0,0,0,0,0,0,0,0,0,0,0,0,0,0,0,0,0,0,0,0,0,0,0],"split_type":[0,0,0,0,0,0,0,0,0,0,0,0,0,0,0,0,0,0,0,0,0,0,0,0,0,0,0,0,0,0,0,0,0,0,0,0,0,0,0,0,0,0,0,0,0,0,0,0,0,0,0,0,0,0,0],"sum_hessian":[4.672E3,2.353E3,2.319E3,1.68E3,6.73E2,1.971E3,3.48E2,1.15E3,5.3E2,2.71E2,4.02E2,1.042E3,9.29E2,1.28E2,2.2E2,4.93E2,6.57E2,2.92E2,2.38E2,1.62E2,1.09E2,1.48E2,2.54E2,3.1E2,7.32E2,4.91E2,4.38E2,7.3E1,5.5E1,1.64E2,5.6E1,1.1E2,3.8E1,1.46E2,1.08E2,1.11E2,1.99E2,2.57E2,4.75E2,2.72E2,2.19E2,3.65E2,7.3E1,9.2E1,5.4E1,7.3E1,3.5E1,9.1E1,2E1,1.26E2,7.3E1,3.8E1,2.19E2,1.99E2,2.76E2],"tree_param":{"num_deleted":"0","num_feature":"5","num_nodes":"55","size_leaf_vector":"1"}},{"base_weights":[9.611958E1,-9.233566E4,9.6983375E4,-1.1334106E5,-2.7551855E4,7.4954695E4,2.1877845E5,-1.2344054E5,-8.4617914E4,-4.6310082E4,-1.2904075E4,5.4138066E4,1.01051984E5,1.7786898E5,2.4732481E5,-1.29311125E5,-1.1258703E4,-9.463593E3,-7.6866978E3,-5.7926055E3,-3.948223E4,-2.0266186E4,-5.3745195E3,2.3774203E4,6.538803E4,8.942403E4,1.1640691E5,1.6128132E4,2.0194395E4,2.3469604E4,2.7555475E4,-1.3829744E4,-1.2602003E4,-4.1841025E3,-3.3858762E3,-2.4387942E3,-1.6805803E4,-8.98137E3,-8.176989E2,1.2368069E4,3.2305969E4,5.989137E4,7.1468765E3,8.432889E3,9.75665E3,1.1168718E4,1.405396E4,-1.7113772E3,-7.901188E2,-1.0495968E3,-6.653943E2,-3.087283E2,1.2982684E2,7.2987225E2,1.9085914E3,2.7943674E3,4.0022285E3,5.305152E3,6.1627275E3],"categories":[],"categories_nodes":[],"categories_segments":[],"categories_sizes":[],"default_left":[0,0,0,0,0,0,0,0,0,0,0,0,0,0,0,0,0,0,0,0,0,0,0,0,0,0,0,0,0,0,0,0,0,0,0,0,0,0,0,0,0,0,0,0,0,0,0,0,0,0,0,0,0,0,0,0,0,0,0],"id":7,"left_children":[1,3,5,7,9,11,13,15,17,19,21,23,25,27,29,31,-1,-1,-1,-1,33,35,37,39,41,43,45,-1,-1,-1,-1,-1,-1,-1,-1,-1,47,49,51,53,55,57,-1,-1,-1,-1,-1,-1,-1,-1,-1,-1,-1,-1,-1,-1,-1,-1,-1],"loss_changes":[4.185783E13,3.251934E12,6.1061705E12,5.134541E11,1.606903E11,1.04519015E12,3.6357695E11,7.043914E10,2.9453451E10,1.8096128E10,1.8239541E10,3.6668205E11,1.4260424E11,2.6134184E10,7.6996936E9,7.9765176E9,0E0,0E0,0E0,0E0,7.719813E8,1.9720397E9,2.704558E9,2.8113584E10,2.1990998E10,1.2184191E10,2.599053E10,0E0,0E0,0E0,0E0,0E0,0E0,0E0,0E0,0E0,1.2256256E8,2.5447117E8,3.593832E8,4.1856942E9,4.5029786E9,1.7053778E9,0E0,0E0,0E0,0E0,0E0,0E0,0E0,0E0,0E0,0E0,0E0,0E0,0E0,0E0,0E0,0E0,0E0],"parents":[2147483647,0,0,1,1,2,2,3,3,4,4,5,5,6,6,7,7,8,8,9,9,10,10,11,11,12,12,13,13,14,14,15,15,20,20,21,21,22,22,23,23,24,24,25,25,26,26,36,36,37,37,38,38,39,39,40,40,41,41],"right_children":[2,4,6,8,10,12,14,16,18,20,22,24,26,28,30,32,-1,-1,-1,-1,34,36,38,40,42,44,46,-1,-1,-1,-1,-1,-1,-1,-1,-1,48,50,52,54,56,58,-1,-1,-1,-1,-1,-1,-1,-1,-1,-1,-1,-1,-1,-1,-1,-1,-1],"split_conditions":[3.5752453E5,2.0145416E5,6.671199E5,1.3194564E5,2.83511E5,5.1363994E5,8.093835E5,9.706003E4,1.7159908E5,2.439254E5,3.223682E5,4.419149E5,5.6567094E5,7.27152E5,8.8941725E5,7.316748E4,-1.1258703E4,-9.463593E3,-7.6866978E3,-5.7926055E3,2.7197603E5,3.0621353E5,3.38092E5,3.9789078E5,4.8830853E5,5.4223006E5,6.100546E5,1.6128132E4,2.0194395E4,2.3469604E4,2.7555475E4,-1.3829744E4,-1.2602003E4,-4.1841025E3,-3.3858762E3,-2.4387942E3,3.267493E5,3.3334416E5,3.463097E5,3.826453E5,4.22306E5,4.7009094E5,7.1468765E3,8.432889E3,9.75665E3,1.1168718E4,1.405396E4,-1.7113772E3,-7.901188E2,-1.0495968E3,-6.653943E2,-3.087283E2,1.2982684E2,7.2987225E2,1.9085914E3,2.7943674E3,4.0022285E3,5.305152E3,6.1627275E3],"split_indices":[0,1,0,0,0,0,0,0,0,0,1,0,0,1,0,0,0,0,0,0,0,0,1,0,0,0,3,0,0,0,0,0,0,0,0,0,0,0,0,0,0,0,0,0,0,0,0,0,0,0,0,0,0,0,0,0,0,0,0],"split_type":[0,0,0,0,0,0,0,0,0,0,0,0,0,0,0,0,0,0,0,0,0,0,0,0,0,0,0,0,0,0,0,0,0,0,0,0,0,0,0,0,0,0,0,0,0,0,0,0,0,0,0,0,0,0,0,0,0,0,0],"sum_hessian":[4.672E3,2.391E3,2.281E3,1.805E3,5.86E2,1.933E3,3.48E2,1.333E3,4.72E2,2.56E2,3.3E2,1.077E3,8.56E2,1.46E2,2.02E2,8.58E2,4.75E2,2.01E2,2.71E2,9.2E1,1.64E2,1.66E2,1.64E2,2.92E2,7.85E2,4.91E2,3.65E2,9.1E1,5.5E1,1.46E2,5.6E1,2.19E2,6.39E2,1.11E2,5.3E1,7.3E1,9.3E1,9.1E1,7.3E1,1.26E2,1.66E2,4.18E2,3.67E2,3.09E2,1.82E2,3.1E2,5.5E1,8.9E1,4E0,5.3E1,3.8E1,3.5E1,3.8E1,7.3E1,5.3E1,1.09E2,5.7E1,9.1E1,3.27E2],"tree_param":{"num_deleted":"0","num_feature":"5","num_nodes":"59","size_leaf_vector":"1"}},{"base_weights":[1.044343E2,-8.313346E4,8.735463E4,-1.0204297E5,-2.4813693E4,6.749618E4,1.9715088E5,-1.1236366E5,-7.911628E4,-4.059651E4,-1.0676541E4,4.9396363E4,9.186981E4,1.5093388E4,2.175122E5,-1.1705397E5,-1.0406901E4,-8.875585E3,-6.976797E3,-5.0708965E4,-3.363197E4,-1.6487664E4,-4.081223E3,2.1428982E4,5.9329348E4,8.375361E4,1.0951878E5,2.0459984E4,2.4319139E4,-1.2453055E4,-1.1394655E4,-5.5400903E3,-4.473042E3,-3.6488132E3,-2.9454333E3,-1.8517531E4,-1.2206002E4,-6.6790356E3,3.8564603E2,1.240858E4,3.030361E4,5.392961E4,6.4809844E3,7.6965503E3,9.065637E3,1.0416207E4,1.2678987E4,-2.3482344E2,-1.864433E3,-1.3524918E3,-9.552907E2,-8.667321E2,-5.329772E2,-1.4405331E2,1.17178444E2,6.5294135E2,1.8120065E3,2.6238494E3,3.608907E3,5.045649E3,5.684186E3],"categories":[],"categories_nodes":[],"categories_segments":[],"categories_sizes":[],"default_left":[0,0,0,0,0,0,0,0,0,0,0,0,0,0,0,0,0,0,0,0,0,0,0,0,0,0,0,0,0,0,0,0,0,0,0,0,0,0,0,0,0,0,0,0,0,0,0,0,0,0,0,0,0,0,0,0,0,0,0,0,0],"id":8,"left_children":[1,3,5,7,9,11,13,15,17,19,21,23,25,-1,27,29,-1,-1,-1,31,33,35,37,39,41,43,45,-1,-1,-1,-1,-1,-1,-1,-1,47,49,51,53,55,57,59,-1,-1,-1,-1,-1,-1,-1,-1,-1,-1,-1,-1,-1,-1,-1,-1,-1,-1,-1],"loss_changes":[3.394503E13,2.635362E12,4.9623293E12,4.1844474E11,1.3054044E11,8.4866184E11,2.9559357E11,3.617692E10,4.463185E10,1.7803248E10,1.1852161E10,3.076417E11,1.0871636E11,0E0,2.9821501E10,4.0716206E9,0E0,0E0,0E0,6.355681E8,9.179136E8,1.2080169E9,1.7083768E9,2.3079412E10,2.0771242E10,1.9637207E10,1.0477371E10,0E0,0E0,0E0,0E0,0E0,0E0,0E0,0E0,1.8174362E8,6.6753536E7,2.0329805E8,8.064762E7,4.8177644E9,2.5103155E9,1.3699645E9,0E0,0E0,0E0,0E0,0E0,0E0,0E0,0E0,0E0,0E0,0E0,0E0,0E0,0E0,0E0,0E0,0E0,0E0,0E0],"parents":[2147483647,0,0,1,1,2,2,3,3,4,4,5,5,6,6,7,7,8,8,9,9,10,10,11,11,12,12,14,14,15,15,19,19,20,20,21,21,22,22,23,23,24,24,25,25,26,26,35,35,36,36,37,37,38,38,39,39,40,40,41,41],"right_children":[2,4,6,8,10,12,14,16,18,20,22,24,26,-1,28,30,-1,-1,-1,32,34,36,38,40,42,44,46,-1,-1,-1,-1,-1,-1,-1,-1,48,50,52,54,56,58,60,-1,-1,-1,-1,-1,-1,-1,-1,-1,-1,-1,-1,-1,-1,-1,-1,-1,-1,-1],"split_conditions":[3.5752453E5,2.0124862E5,6.671199E5,1.2525714E5,2.9718703E5,5.163113E5,7.782729E5,9.426247E4,1.6893761E5,2.5302236E5,3.267493E5,4.419149E5,5.777613E5,1.5093388E4,8.682498E5,7.316748E4,-1.0406901E4,-8.875585E3,-6.976797E3,2.365353E5,2.7197603E5,3.1590116E5,3.431039E5,4.0032647E5,4.8830853E5,5.438486E5,6.149178E5,2.0459984E4,2.4319139E4,-1.2453055E4,-1.1394655E4,-5.5400903E3,-4.473042E3,-3.6488132E3,-2.9454333E3,2.832064E5,3.221271E5,3.3334416E5,3.463097E5,3.823413E5,4.22306E5,4.7688303E5,6.4809844E3,7.6965503E3,9.065637E3,1.0416207E4,1.2678987E4,-2.3482344E2,-1.864433E3,-1.3524918E3,-9.552907E2,-8.667321E2,-5.329772E2,-1.4405331E2,1.17178444E2,6.5294135E2,1.8120065E3,2.6238494E3,3.608907E3,5.045649E3,5.684186E3],"split_indices":[0,3,0,0,0,0,0,0,0,2,0,0,0,0,0,0,0,0,0,0,0,1,0,0,0,0,0,0,0,0,0,0,0,0,0,2,2,0,0,1,0,0,0,0,0,0,0,0,0,0,0,0,0,0,0,0,0,0,0,0,0],"split_type":[0,0,0,0,0,0,0,0,0,0,0,0,0,0,0,0,0,0,0,0,0,0,0,0,0,0,0,0,0,0,0,0,0,0,0,0,0,0,0,0,0,0,0,0,0,0,0,0,0,0,0,0,0,0,0,0,0,0,0,0,0],"sum_hessian":[4.672E3,2.391E3,2.281E3,1.805E3,5.86E2,1.933E3,3.48E2,1.242E3,5.63E2,2.76E2,3.1E2,1.111E3,8.22E2,1.09E2,2.39E2,7.85E2,4.57E2,2.73E2,2.9E2,1.1E2,1.66E2,1.64E2,1.46E2,2.92E2,8.19E2,5.67E2,2.55E2,1.65E2,7.4E1,2.19E2,5.66E2,5.7E1,5.3E1,9.4E1,7.2E1,1.09E2,5.5E1,9.2E1,5.4E1,1.46E2,1.46E2,4.18E2,4.01E2,2.92E2,2.75E2,2E2,5.5E1,1E0,1.08E2,3.4E1,2.1E1,3.5E1,5.7E1,1.6E1,3.8E1,7.3E1,7.3E1,8.9E1,5.7E1,1.99E2,2.19E2],"tree_param":{"num_deleted":"0","num_feature":"5","num_nodes":"61","size_leaf_vector":"1"}},{"base_weights":[1.0535118E2,-7.549566E4,7.800521E4,-9.3596E4,-2.8005135E4,5.9071344E4,1.7183483E5,-1.0246688E5,-7.625531E4,-4.56683E4,-1.3710319E4,4.1053312E4,7.806995E4,1.2666671E4,1.9375286E5,-1.1108583E4,-9.958833E3,-8.525669E3,-6.8050695E4,-5.512852E4,-3.589741E4,-2.073537E4,-6.4930854E3,1.6055602E4,5.0748117E4,6.790608E4,8.937829E4,1.7593145E4,2.0994678E4,-7.260474E3,-6.358102E3,-5.755165E3,-4.694263E3,-3.9542168E3,-3.2070459E4,-2.6526105E4,-1.6688074E4,-9.8015205E3,-3.1859958E3,4.950224E3,2.1641742E4,4.3782875E4,5.4101902E4,6.1839585E3,7.1296416E3,8.416187E3,9.749903E3,-1.2823344E3,-3.241274E3,-2.667932E3,-7.670766E2,-2.2308281E2,-1.6799222E3,-1.2211061E3,-8.1205304E2,-4.941686E2,-4.4262753E1,2.7543942E2,8.1137E2,1.7926633E3,2.6685232E3,3.5509285E3,4.6042573E3,5.146396E3,5.6925596E3],"categories":[],"categories_nodes":[],"categories_segments":[],"categories_sizes":[],"default_left":[0,0,0,0,0,0,0,0,0,0,0,0,0,0,0,0,0,0,0,0,0,0,0,0,0,0,0,0,0,0,0,0,0,0,0,0,0,0,0,0,0,0,0,0,0,0,0,0,0,0,0,0,0,0,0,0,0,0,0,0,0,0,0,0,0],"id":9,"left_children":[1,3,5,7,9,11,13,15,17,19,21,23,25,-1,27,-1,-1,-1,29,31,33,35,37,39,41,43,45,-1,-1,-1,-1,-1,-1,-1,47,49,51,53,55,57,59,61,63,-1,-1,-1,-1,-1,-1,-1,-1,-1,-1,-1,-1,-1,-1,-1,-1,-1,-1,-1,-1,-1,-1],"loss_changes":[2.7526626E13,2.0363367E12,4.079485E12,2.5630867E11,1.650085E11,6.53018E11,3.5759587E11,1.70467E10,3.740218E10,2.5104417E10,1.8320679E10,2.3814026E11,1.0105127E11,0E0,3.7522244E10,0E0,0E0,0E0,1.7141596E9,2.1417165E8,7.8227046E8,3.8697042E9,1.9491446E9,1.7076904E10,1.4216856E10,5.7718866E9,1.0348659E10,0E0,0E0,0E0,0E0,0E0,0E0,0E0,9.161933E7,9.129984E6,1.4089011E8,2.653778E8,4.40931E8,6.306184E8,2.9692477E9,2.7772518E9,6.084362E8,0E0,0E0,0E0,0E0,0E0,0E0,0E0,0E0,0E0,0E0,0E0,0E0,0E0,0E0,0E0,0E0,0E0,0E0,0E0,0E0,0E0,0E0],"parents":[2147483647,0,0,1,1,2,2,3,3,4,4,5,5,6,6,7,7,8,8,9,9,10,10,11,11,12,12,14,14,18,18,19,19,20,20,21,21,22,22,23,23,24,24,25,25,26,26,34,34,35,35,36,36,37,37,38,38,39,39,40,40,41,41,42,42],"right_children":[2,4,6,8,10,12,14,16,18,20,22,24,26,-1,28,-1,-1,-1,30,32,34,36,38,40,42,44,46,-1,-1,-1,-1,-1,-1,-1,48,50,52,54,56,58,60,62,64,-1,-1,-1,-1,-1,-1,-1,-1,-1,-1,-1,-1,-1,-1,-1,-1,-1,-1,-1,-1,-1,-1],"split_conditions":[3.5136297E5,1.9138678E5,6.3830106E5,1.154408E5,2.7197603E5,5.02904E5,7.27152E5,7.604536E4,1.4720817E5,2.365353E5,3.1590116E5,4.334436E5,5.520064E5,1.2666671E4,8.375068E5,-1.1108583E4,-9.958833E3,-8.525669E3,1.7398375E5,2.1508952E5,2.6006186E5,2.9718703E5,3.3334416E5,3.8226962E5,4.7688303E5,5.197683E5,5.846093E5,1.7593145E4,2.0994678E4,-7.260474E3,-6.358102E3,-5.755165E3,-4.694263E3,-3.9542168E3,2.533879E5,3.014516E5,2.832064E5,3.221271E5,3.431039E5,3.6285947E5,4.0648012E5,4.548203E5,4.9013484E5,6.1839585E3,7.1296416E3,8.416187E3,9.749903E3,-1.2823344E3,-3.241274E3,-2.667932E3,-7.670766E2,-2.2308281E2,-1.6799222E3,-1.2211061E3,-8.1205304E2,-4.941686E2,-4.4262753E1,2.7543942E2,8.1137E2,1.7926633E3,2.6685232E3,3.5509285E3,4.6042573E3,5.146396E3,5.6925596E3],"split_indices":[2,0,3,0,0,0,1,0,4,0,1,0,1,0,0,0,0,0,0,0,2,0,0,2,0,1,0,0,0,0,0,0,0,0,1,1,2,2,0,0,0,0,0,0,0,0,0,0,0,0,0,0,0,0,0,0,0,0,0,0,0,0,0,0,0],"split_type":[0,0,0,0,0,0,0,0,0,0,0,0,0,0,0,0,0,0,0,0,0,0,0,0,0,0,0,0,0,0,0,0,0,0,0,0,0,0,0,0,0,0,0,0,0,0,0,0,0,0,0,0,0,0,0,0,0,0,0,0,0,0,0,0,0],"sum_hessian":[4.672E3,2.371E3,2.301E3,1.716E3,6.55E2,1.916E3,3.85E2,1.132E3,5.84E2,2.92E2,3.63E2,9.85E2,9.31E2,1.28E2,2.57E2,2.74E2,8.58E2,2.74E2,3.1E2,1.46E2,1.46E2,1.83E2,1.8E2,2.76E2,7.09E2,4.94E2,4.37E2,1.28E2,1.29E2,1.46E2,1.64E2,1.08E2,3.8E1,7E1,7.6E1,7.3E1,1.1E2,8.9E1,9.1E1,9.3E1,1.83E2,2.35E2,4.74E2,1.84E2,3.1E2,2.73E2,1.64E2,2E0,7.4E1,7.2E1,1E0,1E0,1.09E2,3.4E1,5.5E1,5.5E1,3.6E1,5.6E1,3.7E1,1.08E2,7.5E1,5.4E1,1.81E2,2.55E2,2.19E2],"tree_param":{"num_deleted":"0","num_feature":"5","num_nodes":"65","size_leaf_vector":"1"}},{"base_weights":[1.0278E2,-6.73964E4,7.085559E4,-8.426437E4,-2.445304E4,5.5200613E4,1.6296336E5,-9.264286E4,-6.932803E4,-3.8747777E4,-9.436629E3,4.0036242E4,7.518585E4,1.3267222E5,1.8140962E5,-1.003789E4,-9.016866E3,-7.7145625E3,-6.128751E4,-4.9654016E4,-3.053795E4,-1.4802774E4,-3.9482483E3,1.740588E4,4.8073633E4,6.7897914E4,9.001927E4,1.1668345E4,1.42978955E4,1.7143006E4,2.0396385E4,-6.491751E3,-5.679611E3,-5.180513E3,-4.2368745E3,-3.54222E3,-2.745155E3,-1.7965256E3,-1.2155685E4,-6.58709E3,-5.32351E2,7.7948354E3,2.2974518E4,4.4071133E4,5.2918066E3,6.238575E3,7.3503594E3,8.444691E3,1.03938545E4,-1.3296517E3,-1.0205882E3,-8.092542E2,-5.29821E2,-2.145033E2,9.285777E1,3.7854282E2,1.1521857E3,1.8272949E3,2.742905E3,3.846509E3,4.5366973E3],"categories":[],"categories_nodes":[],"categories_segments":[],"categories_sizes":[],"default_left":[0,0,0,0,0,0,0,0,0,0,0,0,0,0,0,0,0,0,0,0,0,0,0,0,0,0,0,0,0,0,0,0,0,0,0,0,0,0,0,0,0,0,0,0,0,0,0,0,0,0,0,0,0,0,0,0,0,0,0,0,0],"id":10,"left_children":[1,3,5,7,9,11,13,15,17,19,21,23,25,27,29,-1,-1,-1,31,33,35,37,39,41,43,45,47,-1,-1,-1,-1,-1,-1,-1,-1,-1,-1,-1,49,51,53,55,57,59,-1,-1,-1,-1,-1,-1,-1,-1,-1,-1,-1,-1,-1,-1,-1,-1,-1],"loss_changes":[2.2321887E13,1.7306254E12,3.2815228E12,2.0844957E11,1.4474156E11,5.885699E11,1.6088144E11,1.1945378E10,3.4306523E10,2.9463937E10,9.689985E9,2.0142385E11,8.480411E10,4.575199E9,1.0725884E10,0E0,0E0,0E0,1.3833339E9,1.0875699E8,2.0425441E9,1.1796357E9,1.4838049E9,1.550241E10,1.3567525E10,1.2965118E10,1.2475171E10,0E0,0E0,0E0,0E0,0E0,0E0,0E0,0E0,0E0,0E0,0E0,7.33911E7,1.3757645E8,1.739808E8,1.5851873E9,3.3732936E9,1.5602811E9,0E0,0E0,0E0,0E0,0E0,0E0,0E0,0E0,0E0,0E0,0E0,0E0,0E0,0E0,0E0,0E0,0E0],"parents":[2147483647,0,0,1,1,2,2,3,3,4,4,5,5,6,6,7,7,8,8,9,9,10,10,11,11,12,12,13,13,14,14,18,18,19,19,20,20,21,21,22,22,23,23,24,24,25,25,26,26,38,38,39,39,40,40,41,41,42,42,43,43],"right_children":[2,4,6,8,10,12,14,16,18,20,22,24,26,28,30,-1,-1,-1,32,34,36,38,40,42,44,46,48,-1,-1,-1,-1,-1,-1,-1,-1,-1,-1,-1,50,52,54,56,58,60,-1,-1,-1,-1,-1,-1,-1,-1,-1,-1,-1,-1,-1,-1,-1,-1,-1],"split_conditions":[3.5752453E5,1.913128E5,6.7737556E5,1.11641055E5,2.83511E5,5.162644E5,8.093835E5,7.506363E4,1.4803538E5,2.365353E5,3.221271E5,4.419149E5,5.777613E5,6.9433806E5,8.8941725E5,-1.003789E4,-9.016866E3,-7.7145625E3,1.7835917E5,2.1508952E5,2.602779E5,3.0621353E5,3.3858316E5,3.9347522E5,4.9013484E5,5.438486E5,6.100546E5,1.1668345E4,1.42978955E4,1.7143006E4,2.0396385E4,-6.491751E3,-5.679611E3,-5.180513E3,-4.2368745E3,-3.54222E3,-2.745155E3,-1.7965256E3,3.1609503E5,3.3102847E5,3.463097E5,3.6785012E5,4.1205025E5,4.7009094E5,5.2918066E3,6.238575E3,7.3503594E3,8.444691E3,1.03938545E4,-1.3296517E3,-1.0205882E3,-8.092542E2,-5.29821E2,-2.145033E2,9.285777E1,3.7854282E2,1.1521857E3,1.8272949E3,2.742905E3,3.846509E3,4.5366973E3],"split_indices":[0,1,0,0,0,1,0,0,1,0,2,0,0,0,0,0,0,0,0,0,0,0,0,0,0,0,3,0,0,0,0,0,0,0,0,0,0,0,0,0,0,0,2,0,0,0,0,0,0,0,0,0,0,0,0,0,0,0,0,0,0],"split_type":[0,0,0,0,0,0,0,0,0,0,0,0,0,0,0,0,0,0,0,0,0,0,0,0,0,0,0,0,0,0,0,0,0,0,0,0,0,0,0,0,0,0,0,0,0,0,0,0,0,0,0,0,0,0,0,0,0,0,0,0,0],"sum_hessian":[4.672E3,2.391E3,2.281E3,1.716E3,6.75E2,1.951E3,3.3E2,1.096E3,6.2E2,3.45E2,3.3E2,1.111E3,8.4E2,1.28E2,2.02E2,2.56E2,8.4E2,3.1E2,3.1E2,1.46E2,1.99E2,1.66E2,1.64E2,2.92E2,8.19E2,5.67E2,2.73E2,5.5E1,7.3E1,1.46E2,5.6E1,1.64E2,1.46E2,1.08E2,3.8E1,7.3E1,1.26E2,7.3E1,9.3E1,9.2E1,7.2E1,1.08E2,1.84E2,4.54E2,3.65E2,2.92E2,2.75E2,2E2,7.3E1,5.5E1,3.8E1,4E1,5.2E1,3.4E1,3.8E1,5.3E1,5.5E1,9.2E1,9.2E1,9.1E1,3.63E2],"tree_param":{"num_deleted":"0","num_feature":"5","num_nodes":"61","size_leaf_vector":"1"}},{"base_weights":[1.043696E2,-6.120515E4,6.3278164E4,-7.586062E4,-2.275295E4,4.921706E4,1.4685888E5,-8.358381E4,-6.2733324E4,-3.712413E4,-1.112243E4,3.493925E4,6.707742E4,1.1960628E5,1.634536E5,-8.772233E3,-7.9946187E3,-6.964849E3,-5.5193977E4,-4.5905474E3,-3.0223803E4,-1.8117438E4,-6.3545923E3,1.3799469E4,4.2580707E4,6.0254566E4,8.042435E4,1.0820683E4,1.3253401E4,1.5605689E4,1.9055623E4,-5.8938364E3,-5.152356E3,-3.4459692E3,-2.665071E3,-2.1468235E3,-1.452181E3,-9.479494E3,-3.084049E3,6.151924E3,1.9694824E4,3.6899367E4,4.5437453E4,5.5005444E3,6.526221E3,7.558763E3,9.371696E3,-1.1017764E3,-7.522269E2,-4.919186E2,-1.0868473E2,2.8614133E2,1.0390243E3,1.6465316E3,2.353934E3,3.1789314E3,3.8588696E3,4.3028745E3,4.8188765E3],"categories":[],"categories_nodes":[],"categories_segments":[],"categories_sizes":[],"default_left":[0,0,0,0,0,0,0,0,0,0,0,0,0,0,0,0,0,0,0,0,0,0,0,0,0,0,0,0,0,0,0,0,0,0,0,0,0,0,0,0,0,0,0,0,0,0,0,0,0,0,0,0,0,0,0,0,0,0,0],"id":11,"left_children":[1,3,5,7,9,11,13,15,17,19,21,23,25,27,29,-1,-1,-1,31,-1,33,35,37,39,41,43,45,-1,-1,-1,-1,-1,-1,-1,-1,-1,-1,47,49,51,53,55,57,-1,-1,-1,-1,-1,-1,-1,-1,-1,-1,-1,-1,-1,-1,-1,-1],"loss_changes":[1.8103128E13,1.3349778E12,2.6981675E12,1.6883332E11,1.0923377E11,5.005299E11,1.30144535E11,9.215934E9,2.9522395E10,1.6366666E10,1.2024656E10,1.7678192E11,7.483556E10,4.669571E9,1.0957619E10,0E0,0E0,0E0,1.2375163E9,0E0,1.6092037E9,1.4593311E9,2.1987523E9,1.3088748E10,1.1404837E10,1.1734876E10,1.1753882E10,0E0,0E0,0E0,0E0,0E0,0E0,0E0,0E0,0E0,0E0,2.5131315E8,3.904885E8,1.7693338E9,1.6610386E9,1.1472732E9,1.4521467E9,0E0,0E0,0E0,0E0,0E0,0E0,0E0,0E0,0E0,0E0,0E0,0E0,0E0,0E0,0E0,0E0],"parents":[2147483647,0,0,1,1,2,2,3,3,4,4,5,5,6,6,7,7,8,8,9,9,10,10,11,11,12,12,13,13,14,14,18,18,20,20,21,21,22,22,23,23,24,24,25,25,26,26,37,37,38,38,39,39,40,40,41,41,42,42],"right_children":[2,4,6,8,10,12,14,16,18,20,22,24,26,28,30,-1,-1,-1,32,-1,34,36,38,40,42,44,46,-1,-1,-1,-1,-1,-1,-1,-1,-1,-1,48,50,52,54,56,58,-1,-1,-1,-1,-1,-1,-1,-1,-1,-1,-1,-1,-1,-1,-1,-1],"split_conditions":[3.5136297E5,1.913128E5,6.7737556E5,1.1066689E5,2.7197603E5,5.1363994E5,8.093835E5,8.447954E4,1.4857219E5,2.2392217E5,3.083578E5,4.3622706E5,5.7561025E5,7.2760556E5,9.048539E5,-8.772233E3,-7.9946187E3,-6.964849E3,1.7382502E5,-4.5905474E3,2.5302236E5,2.9718703E5,3.3102847E5,3.9347522E5,4.794447E5,5.3993125E5,6.149178E5,1.0820683E4,1.3253401E4,1.5605689E4,1.9055623E4,-5.8938364E3,-5.152356E3,-3.4459692E3,-2.665071E3,-2.1468235E3,-1.452181E3,3.1873947E5,3.38092E5,3.6785012E5,4.1205025E5,4.654316E5,4.961635E5,5.5005444E3,6.526221E3,7.558763E3,9.371696E3,-1.1017764E3,-7.522269E2,-4.919186E2,-1.0868473E2,2.8614133E2,1.0390243E3,1.6465316E3,2.353934E3,3.1789314E3,3.8588696E3,4.3028745E3,4.8188765E3],"split_indices":[2,1,0,0,0,0,0,1,0,0,0,1,1,0,0,0,0,0,2,0,2,0,0,0,0,1,0,0,0,0,0,0,0,0,0,0,0,4,1,0,2,0,0,0,0,0,0,0,0,0,0,0,0,0,0,0,0,0,0],"split_type":[0,0,0,0,0,0,0,0,0,0,0,0,0,0,0,0,0,0,0,0,0,0,0,0,0,0,0,0,0,0,0,0,0,0,0,0,0,0,0,0,0,0,0,0,0,0,0,0,0,0,0,0,0,0,0,0,0,0,0],"sum_hessian":[4.672E3,2.371E3,2.301E3,1.716E3,6.55E2,1.971E3,3.3E2,1.077E3,6.39E2,2.92E2,3.63E2,1.097E3,8.74E2,1.28E2,2.02E2,4.93E2,5.84E2,3.29E2,3.1E2,1.26E2,1.66E2,1.46E2,2.17E2,2.92E2,8.05E2,5.82E2,2.92E2,7.3E1,5.5E1,1.64E2,3.8E1,1.46E2,1.64E2,7.2E1,9.4E1,7.3E1,7.3E1,1.1E2,1.07E2,1.28E2,1.64E2,2.74E2,5.31E2,2.9E2,2.92E2,2.19E2,7.3E1,5.9E1,5.1E1,5.5E1,5.2E1,7.3E1,5.5E1,9.2E1,7.2E1,7.3E1,2.01E2,2.92E2,2.39E2],"tree_param":{"num_deleted":"0","num_feature":"5","num_nodes":"59","size_leaf_vector":"1"}},{"base_weights":[1.062702E2,-5.4637535E4,5.748886E4,-6.727566E4,-1.7030771E4,4.4765156E4,1.3235045E5,-7.370065E4,-5.1862082E4,-2.8313938E4,-7.673263E3,3.2908582E4,6.1653758E4,1.0783228E5,1.4727898E5,-7.710825E4,-6.753694E3,-5.835088E3,-4.6414316E3,-3.5461395E4,-2.3420684E4,-1.2022447E4,-3.224857E3,1.413497E4,3.92887E4,5.705326E4,7.684537E4,9.751641E3,1.195384E4,1.4054578E4,1.7198922E4,-8.507018E3,-7.5477236E3,-3.8721697E3,-3.1684294E3,-2.5380984E3,-2.0667058E3,-1.4572704E3,-9.886901E3,-5.3760073E3,-5.06875E2,8.0942666E3,2.0079516E4,3.5538258E4,4.3088354E3,5.16096E3,6.1727847E3,7.104672E3,8.450489E3,-9.0356255E1,-9.9737805E2,-9.63125E2,-4.9671387E2,-1.8342674E2,7.314071E1,4.2399484E2,1.1839203E3,1.7279149E3,2.4078716E3,3.2018962E3,3.6861125E3],"categories":[],"categories_nodes":[],"categories_segments":[],"categories_sizes":[],"default_left":[0,0,0,0,0,0,0,0,0,0,0,0,0,0,0,0,0,0,0,0,0,0,0,0,0,0,0,0,0,0,0,0,0,0,0,0,0,0,0,0,0,0,0,0,0,0,0,0,0,0,0,0,0,0,0,0,0,0,0,0,0],"id":12,"left_children":[1,3,5,7,9,11,13,15,17,19,21,23,25,27,29,31,-1,-1,-1,33,35,37,39,41,43,45,47,-1,-1,-1,-1,-1,-1,-1,-1,-1,-1,-1,49,51,53,55,57,59,-1,-1,-1,-1,-1,-1,-1,-1,-1,-1,-1,-1,-1,-1,-1,-1,-1],"loss_changes":[1.4682629E13,1.135721E12,2.1677191E12,1.7344496E11,6.344886E10,3.8884134E11,1.0527126E11,2.1278228E10,1.6026829E10,8.717451E9,6.3650673E9,1.3706946E11,5.180647E10,3.9208878E9,9.602335E9,4.0328233E9,0E0,0E0,0E0,1.154089E8,3.6610867E8,7.6543386E8,9.6199514E8,1.0358878E10,1.0681319E10,1.2616729E10,2.1685207E9,0E0,0E0,0E0,0E0,0E0,0E0,0E0,0E0,0E0,0E0,0E0,6.4352256E7,1.1222502E8,1.22974376E8,2.0716257E9,1.2302295E9,8.541962E8,0E0,0E0,0E0,0E0,0E0,0E0,0E0,0E0,0E0,0E0,0E0,0E0,0E0,0E0,0E0,0E0,0E0],"parents":[2147483647,0,0,1,1,2,2,3,3,4,4,5,5,6,6,7,7,8,8,9,9,10,10,11,11,12,12,13,13,14,14,15,15,19,19,20,20,21,21,22,22,23,23,24,24,25,25,26,26,38,38,39,39,40,40,41,41,42,42,43,43],"right_children":[2,4,6,8,10,12,14,16,18,20,22,24,26,28,30,32,-1,-1,-1,34,36,38,40,42,44,46,48,-1,-1,-1,-1,-1,-1,-1,-1,-1,-1,-1,50,52,54,56,58,60,-1,-1,-1,-1,-1,-1,-1,-1,-1,-1,-1,-1,-1,-1,-1,-1,-1],"split_conditions":[3.5752453E5,1.9935616E5,6.7737556E5,1.2695969E5,2.83511E5,5.197683E5,8.093835E5,9.480162E4,1.6640031E5,2.4384322E5,3.221271E5,4.419149E5,5.882148E5,7.253847E5,9.048539E5,6.8824945E4,-6.753694E3,-5.835088E3,-4.6414316E3,2.2119678E5,2.689109E5,3.0621353E5,3.38092E5,4.0032647E5,4.8912756E5,5.498164E5,6.102386E5,9.751641E3,1.195384E4,1.4054578E4,1.7198922E4,-8.507018E3,-7.5477236E3,-3.8721697E3,-3.1684294E3,-2.5380984E3,-2.0667058E3,-1.4572704E3,2.832064E5,3.195064E5,3.463097E5,3.826453E5,4.22306E5,4.7153812E5,4.3088354E3,5.16096E3,6.1727847E3,7.104672E3,8.450489E3,-9.0356255E1,-9.9737805E2,-9.63125E2,-4.9671387E2,-1.8342674E2,7.314071E1,4.2399484E2,1.1839203E3,1.7279149E3,2.4078716E3,3.2018962E3,3.6861125E3],"split_indices":[0,0,0,2,0,1,0,0,0,1,2,0,0,2,0,0,0,0,0,3,0,0,1,0,1,0,2,0,0,0,0,0,0,0,0,0,0,0,2,0,0,0,0,0,0,0,0,0,0,0,0,0,0,0,0,0,0,0,0,0,0],"split_type":[0,0,0,0,0,0,0,0,0,0,0,0,0,0,0,0,0,0,0,0,0,0,0,0,0,0,0,0,0,0,0,0,0,0,0,0,0,0,0,0,0,0,0,0,0,0,0,0,0,0,0,0,0,0,0,0,0,0,0,0,0],"sum_hessian":[4.672E3,2.391E3,2.281E3,1.789E3,6.02E2,1.951E3,3.3E2,1.26E3,5.29E2,2.72E2,3.3E2,1.148E3,8.03E2,1.28E2,2.02E2,8.04E2,4.56E2,2.37E2,2.92E2,1.08E2,1.64E2,1.66E2,1.64E2,2.92E2,8.56E2,6.2E2,1.83E2,7.3E1,5.5E1,1.64E2,3.8E1,1.28E2,6.76E2,5.3E1,5.5E1,9.1E1,7.3E1,7.3E1,9.3E1,9.1E1,7.3E1,1.46E2,1.46E2,4.36E2,4.2E2,2.92E2,3.28E2,1.1E2,7.3E1,1E0,9.2E1,6E0,8.5E1,3.5E1,3.8E1,7.3E1,7.3E1,8.9E1,5.7E1,1.26E2,3.1E2],"tree_param":{"num_deleted":"0","num_feature":"5","num_nodes":"61","size_leaf_vector":"1"}},{"base_weights":[1.0585868E2,-4.9194285E4,5.1782387E4,-6.1500695E4,-1.7863963E4,3.994883E4,1.1721025E5,-6.809004E4,-5.125277E4,-2.880714E4,-7.4054233E3,2.9418418E4,5.4712438E4,9.715365E4,1.34465E5,-7.5608047E3,-6.6589375E3,-5.665195E3,-4.4733953E4,-3.618476E4,-2.2756502E4,-1.1936778E4,-3.3729023E3,1.1934694E4,3.4940695E4,4.873173E4,6.319908E4,8.361149E3,1.0699023E4,1.2792728E4,1.55659375E4,-4.738846E3,-4.1450093E3,-3.774632E3,-3.08926E3,-2.706865E3,-2.080526E4,-1.5229213E3,-1.0165946E4,-5.275065E3,-4.4837372E2,5.7235957E3,1.5965452E4,3.1472465E4,3.847422E4,4.525271E3,5.19923E3,5.9940938E3,7.361644E3,-2.0884568E3,-5.247672E2,-8.5839066E1,-1.024418E3,-7.738107E2,-4.4783505E2,-2.2409402E2,3.5311478E1,2.7477994E2,8.595327E2,1.3284928E3,1.9082246E3,2.579739E3,3.2533894E3,3.6600195E3,4.0362017E3],"categories":[],"categories_nodes":[],"categories_segments":[],"categories_sizes":[],"default_left":[0,0,0,0,0,0,0,0,0,0,0,0,0,0,0,0,0,0,0,0,0,0,0,0,0,0,0,0,0,0,0,0,0,0,0,0,0,0,0,0,0,0,0,0,0,0,0,0,0,0,0,0,0,0,0,0,0,0,0,0,0,0,0,0,0],"id":13,"left_children":[1,3,5,7,9,11,13,15,17,19,21,23,25,27,29,-1,-1,-1,31,33,35,37,39,41,43,45,47,-1,-1,-1,-1,-1,-1,-1,-1,-1,49,-1,51,53,55,57,59,61,63,-1,-1,-1,-1,-1,-1,-1,-1,-1,-1,-1,-1,-1,-1,-1,-1,-1,-1,-1,-1],"loss_changes":[1.1907763E13,9.211693E11,1.7621435E12,1.1245453E11,7.7154664E10,2.990633E11,1.0771549E11,6.720848E9,2.1258306E10,1.3907526E10,6.3003955E9,1.0878104E11,3.7728027E10,1.30338E10,5.7210307E9,0E0,0E0,0E0,7.467827E8,4.870963E7,9.850143E8,7.955272E8,1.0267767E9,6.74329E9,9.316205E9,3.0467686E9,6.753878E9,0E0,0E0,0E0,0E0,0E0,0E0,0E0,0E0,0E0,5.2035584E7,0E0,7.057613E7,1.851282E8,1.07108696E8,9.078615E8,1.1250115E9,1.8051236E9,1.212416E7,0E0,0E0,0E0,0E0,0E0,0E0,0E0,0E0,0E0,0E0,0E0,0E0,0E0,0E0,0E0,0E0,0E0,0E0,0E0,0E0],"parents":[2147483647,0,0,1,1,2,2,3,3,4,4,5,5,6,6,7,7,8,8,9,9,10,10,11,11,12,12,13,13,14,14,18,18,19,19,20,20,21,21,22,22,23,23,24,24,25,25,26,26,36,36,38,38,39,39,40,40,41,41,42,42,43,43,44,44],"right_children":[2,4,6,8,10,12,14,16,18,20,22,24,26,28,30,-1,-1,-1,32,34,36,38,40,42,44,46,48,-1,-1,-1,-1,-1,-1,-1,-1,-1,50,-1,52,54,56,58,60,62,64,-1,-1,-1,-1,-1,-1,-1,-1,-1,-1,-1,-1,-1,-1,-1,-1,-1,-1,-1,-1],"split_conditions":[3.5752453E5,1.9138678E5,6.671199E5,1.0839013E5,2.788224E5,5.1820128E5,8.1989856E5,7.013226E4,1.4720817E5,2.365353E5,3.195064E5,4.3644528E5,5.6989456E5,6.9433806E5,9.048539E5,-7.5608047E3,-6.6589375E3,-5.665195E3,1.7835917E5,2.140301E5,2.5358094E5,3.018171E5,3.3858316E5,3.9347522E5,4.8830853E5,5.3995644E5,5.998347E5,8.361149E3,1.0699023E4,1.2792728E4,1.55659375E4,-4.738846E3,-4.1450093E3,-3.774632E3,-3.08926E3,-2.706865E3,3.0120106E5,-1.5229213E3,2.832064E5,3.221271E5,3.428909E5,3.6732516E5,4.1325447E5,4.654316E5,5.0100678E5,4.525271E3,5.19923E3,5.9940938E3,7.361644E3,-2.0884568E3,-5.247672E2,-8.5839066E1,-1.024418E3,-7.738107E2,-4.4783505E2,-2.2409402E2,3.5311478E1,2.7477994E2,8.595327E2,1.3284928E3,1.9082246E3,2.579739E3,3.2533894E3,3.6600195E3,4.0362017E3],"split_indices":[0,0,0,0,0,0,0,0,4,0,0,0,0,0,1,0,0,0,0,2,0,0,0,0,0,0,0,0,0,0,0,0,0,0,0,0,4,0,2,2,1,2,0,0,0,0,0,0,0,0,0,0,0,0,0,0,0,0,0,0,0,0,0,0,0],"split_type":[0,0,0,0,0,0,0,0,0,0,0,0,0,0,0,0,0,0,0,0,0,0,0,0,0,0,0,0,0,0,0,0,0,0,0,0,0,0,0,0,0,0,0,0,0,0,0,0,0,0,0,0,0,0,0,0,0,0,0,0,0,0,0,0,0],"sum_hessian":[4.672E3,2.391E3,2.281E3,1.716E3,6.75E2,1.933E3,3.48E2,1.041E3,6.75E2,3.29E2,3.46E2,1.13E3,8.03E2,1.64E2,1.84E2,1.65E2,8.76E2,3.65E2,3.1E2,1.46E2,1.83E2,1.62E2,1.84E2,2.72E2,8.58E2,4.75E2,3.28E2,7.3E1,9.1E1,1.46E2,3.8E1,1.64E2,1.46E2,1.08E2,3.8E1,5.3E1,1.3E2,5.4E1,1.08E2,1.11E2,7.3E1,1.08E2,1.64E2,4.38E2,4.2E2,2.37E2,2.38E2,2.55E2,7.3E1,1.29E2,1E0,1E0,1.07E2,2.5E1,8.6E1,2.2E1,5.1E1,5.4E1,5.4E1,9.1E1,7.3E1,7.3E1,3.65E2,2.21E2,1.99E2],"tree_param":{"num_deleted":"0","num_feature":"5","num_nodes":"65","size_leaf_vector":"1"}},{"base_weights":[1.0456197E2,-4.4676504E4,4.62473E4,-5.5999684E4,-1.8145143E4,3.4645406E4,1.00667484E5,-6.1432957E4,-4.7205207E4,-2.9210094E4,-8.646576E3,2.2978664E4,4.465561E4,7.435986E3,1.1526653E5,-6.8617236E3,-6.016015E3,-5.140437E3,-4.142382E4,-3.4259043E3,-2.2760303E4,-1.3808562E4,-4.652549E3,9.497904E3,2.913321E4,3.897929E4,5.209215E4,1.0757684E4,1.3259505E4,-4.4002817E3,-3.8896372E3,-2.5349685E3,-1.99365E3,-1.6299447E3,-1.0685455E4,-6.947866E3,-2.2503938E3,2.9061729E3,1.2813801E4,2.5779459E4,3.1204822E3,3.6258914E3,4.228895E3,4.8973545E3,5.6147964E3,-1.8900157E2,-1.1016487E3,-8.1090204E2,-5.4744604E2,-3.184055E2,-3.7271877E1,1.0157687E2,4.228173E2,9.591624E2,1.484648E3,2.1171108E3,2.7030447E3],"categories":[],"categories_nodes":[],"categories_segments":[],"categories_sizes":[],"default_left":[0,0,0,0,0,0,0,0,0,0,0,0,0,0,0,0,0,0,0,0,0,0,0,0,0,0,0,0,0,0,0,0,0,0,0,0,0,0,0,0,0,0,0,0,0,0,0,0,0,0,0,0,0,0,0,0,0],"id":14,"left_children":[1,3,5,7,9,11,13,15,17,19,21,23,25,-1,27,-1,-1,-1,29,-1,31,33,35,37,39,41,43,-1,-1,-1,-1,-1,-1,-1,45,47,49,51,53,55,-1,-1,-1,-1,-1,-1,-1,-1,-1,-1,-1,-1,-1,-1,-1,-1,-1],"loss_changes":[9.657985E12,7.115789E11,1.4499426E12,7.651459E10,7.447436E10,2.207512E11,1.4659145E11,5.235802E9,1.3383631E10,9.901441E9,7.852724E9,7.265219E10,4.1068134E10,0E0,2.0114571E10,0E0,0E0,0E0,7.44489E7,0E0,5.694751E8,1.1249787E9,1.1863526E9,6.017286E9,3.3849672E9,3.7156946E9,2.8029747E9,0E0,0E0,0E0,0E0,0E0,0E0,0E0,2.033705E8,1.4551194E8,1.8814931E8,2.3062182E8,1.0627338E9,7.882834E8,0E0,0E0,0E0,0E0,0E0,0E0,0E0,0E0,0E0,0E0,0E0,0E0,0E0,0E0,0E0,0E0,0E0],"parents":[2147483647,0,0,1,1,2,2,3,3,4,4,5,5,6,6,7,7,8,8,9,9,10,10,11,11,12,12,14,14,18,18,20,20,21,21,22,22,23,23,24,24,25,25,26,26,34,34,35,35,36,36,37,37,38,38,39,39],"right_children":[2,4,6,8,10,12,14,16,18,20,22,24,26,-1,28,-1,-1,-1,30,-1,32,34,36,38,40,42,44,-1,-1,-1,-1,-1,-1,-1,46,48,50,52,54,56,-1,-1,-1,-1,-1,-1,-1,-1,-1,-1,-1,-1,-1,-1,-1,-1,-1],"split_conditions":[3.5136297E5,1.8734927E5,6.078065E5,1.0680735E5,2.689109E5,4.9703716E5,7.2760556E5,6.924387E4,1.4004903E5,2.2331631E5,3.083578E5,4.334436E5,5.498164E5,7.435986E3,8.664307E5,-6.8617236E3,-6.016015E3,-5.140437E3,1.686048E5,-3.4259043E3,2.5302236E5,2.962135E5,3.3102847E5,3.823413E5,4.7688303E5,5.2343888E5,5.80039E5,1.0757684E4,1.3259505E4,-4.4002817E3,-3.8896372E3,-2.5349685E3,-1.99365E3,-1.6299447E3,2.9459822E5,3.1873947E5,3.431039E5,3.6065422E5,4.0032647E5,4.548203E5,3.1204822E3,3.6258914E3,4.228895E3,4.8973545E3,5.6147964E3,-1.8900157E2,-1.1016487E3,-8.1090204E2,-5.4744604E2,-3.184055E2,-3.7271877E1,1.0157687E2,4.228173E2,9.591624E2,1.484648E3,2.1171108E3,2.7030447E3],"split_indices":[2,0,4,2,0,0,0,0,1,1,0,0,0,0,3,0,0,0,2,0,2,3,0,1,0,0,1,0,0,0,0,0,0,0,4,4,0,0,0,0,0,0,0,0,0,0,0,0,0,0,0,0,0,0,0,0,0],"split_type":[0,0,0,0,0,0,0,0,0,0,0,0,0,0,0,0,0,0,0,0,0,0,0,0,0,0,0,0,0,0,0,0,0,0,0,0,0,0,0,0,0,0,0,0,0,0,0,0,0,0,0,0,0,0,0,0,0],"sum_hessian":[4.672E3,2.371E3,2.301E3,1.661E3,7.1E2,1.898E3,4.03E2,1.023E3,6.38E2,3.27E2,3.83E2,8.78E2,1.02E3,1.46E2,2.57E2,1.46E2,8.77E2,3.65E2,2.73E2,1.81E2,1.46E2,1.66E2,2.17E2,2.76E2,6.02E2,5.82E2,4.38E2,1.83E2,7.4E1,1.27E2,1.46E2,7.2E1,7.4E1,9E1,7.6E1,1.1E2,1.07E2,9.3E1,1.83E2,2.35E2,3.67E2,3.26E2,2.56E2,2.55E2,1.83E2,3E0,7.3E1,5.9E1,5.1E1,7.1E1,3.6E1,3.9E1,5.4E1,7.3E1,1.1E2,5.4E1,1.81E2],"tree_param":{"num_deleted":"0","num_feature":"5","num_nodes":"57","size_leaf_vector":"1"}},{"base_weights":[9.8777084E1,-4.022535E4,4.1649055E4,-5.0415543E4,-1.6348666E4,3.2343492E4,9.696301E4,-5.5428742E4,-4.268199E4,-2.7428768E4,-8.651142E3,2.2370975E4,4.344762E4,8.20431E4,1.1112362E5,-6.305802E3,-5.442061E4,-4.63957E3,-3.730805E4,-3.1367878E3,-2.2167494E4,-1.4349489E4,-4.8480957E3,8.5596875E3,2.734268E4,3.793632E4,5.121391E4,7.1654463E3,8.95074E3,1.0521375E4,1.2782233E4,-5.5735654E3,-5.177199E3,-3.9635754E3,-3.5027407E3,-2.4038599E3,-1.9246963E3,-1.602115E3,-1.0989623E4,-6.884935E3,-2.0308406E3,3.290493E3,1.1958805E4,2.3617342E4,2.9361787E4,3.4718494E3,4.062931E3,4.7348003E3,5.8488774E3,-4.480039E2,-1.1258351E3,-8.183836E2,-5.492995E2,-3.1941696E2,-7.6334496E1,1.8664655E2,6.165815E2,9.9066895E2,1.4312593E3,1.9092474E3,2.4641206E3,2.7723345E3,3.0787874E3],"categories":[],"categories_nodes":[],"categories_segments":[],"categories_sizes":[],"default_left":[0,0,0,0,0,0,0,0,0,0,0,0,0,0,0,0,0,0,0,0,0,0,0,0,0,0,0,0,0,0,0,0,0,0,0,0,0,0,0,0,0,0,0,0,0,0,0,0,0,0,0,0,0,0,0,0,0,0,0,0,0,0,0],"id":15,"left_children":[1,3,5,7,9,11,13,15,17,19,21,23,25,27,29,-1,31,-1,33,-1,35,37,39,41,43,45,47,-1,-1,-1,-1,-1,-1,-1,-1,-1,-1,-1,49,51,53,55,57,59,61,-1,-1,-1,-1,-1,-1,-1,-1,-1,-1,-1,-1,-1,-1,-1,-1,-1,-1],"loss_changes":[7.8311876E12,5.763026E11,1.1817664E12,6.206993E10,6.040345E10,2.1739943E11,6.081531E10,4.297851E9,1.1400905E10,5.335548E9,9.053954E9,7.124694E10,3.7949014E10,6.381109E9,3.0319575E9,0E0,2.3199744E8,0E0,6.619136E7,0E0,2.3680205E8,7.675167E8,1.4435451E9,4.921889E9,5.060821E9,3.346858E9,8.0301916E9,0E0,0E0,0E0,0E0,0E0,0E0,0E0,0E0,0E0,0E0,0E0,5.2770816E7,2.208215E8,1.5680934E8,4.3889075E8,6.696919E8,7.98933E8,2.960261E8,0E0,0E0,0E0,0E0,0E0,0E0,0E0,0E0,0E0,0E0,0E0,0E0,0E0,0E0,0E0,0E0,0E0,0E0],"parents":[2147483647,0,0,1,1,2,2,3,3,4,4,5,5,6,6,7,7,8,8,9,9,10,10,11,11,12,12,13,13,14,14,16,16,18,18,20,20,21,21,22,22,23,23,24,24,25,25,26,26,38,38,39,39,40,40,41,41,42,42,43,43,44,44],"right_children":[2,4,6,8,10,12,14,16,18,20,22,24,26,28,30,-1,32,-1,34,-1,36,38,40,42,44,46,48,-1,-1,-1,-1,-1,-1,-1,-1,-1,-1,-1,50,52,54,56,58,60,62,-1,-1,-1,-1,-1,-1,-1,-1,-1,-1,-1,-1,-1,-1,-1,-1,-1,-1],"split_conditions":[3.5170303E5,1.8734927E5,6.7737556E5,1.0455852E5,2.629732E5,5.077105E5,8.26457E5,6.764131E4,1.4018308E5,2.1427958E5,3.0453166E5,4.334436E5,5.6566756E5,7.253847E5,9.048539E5,-6.305802E3,9.2553E4,-4.63957E3,1.6858747E5,-3.1367878E3,2.439254E5,2.832064E5,3.3102847E5,3.8876353E5,4.7876828E5,5.306593E5,5.945419E5,7.1654463E3,8.95074E3,1.0521375E4,1.2782233E4,-5.5735654E3,-5.177199E3,-3.9635754E3,-3.5027407E3,-2.4038599E3,-1.9246963E3,-1.602115E3,2.8222678E5,3.1609503E5,3.38092E5,3.6732516E5,4.0648012E5,4.548203E5,4.9132934E5,3.4718494E3,4.062931E3,4.7348003E3,5.8488774E3,-4.480039E2,-1.1258351E3,-8.183836E2,-5.492995E2,-3.1941696E2,-7.6334496E1,1.8664655E2,6.165815E2,9.9066895E2,1.4312593E3,1.9092474E3,2.4641206E3,2.7723345E3,3.0787874E3],"split_indices":[0,0,0,0,0,0,0,0,0,1,0,0,1,2,2,0,0,0,3,0,0,2,0,1,0,2,0,0,0,0,0,0,0,0,0,0,0,0,3,0,1,2,0,0,1,0,0,0,0,0,0,0,0,0,0,0,0,0,0,0,0,0,0],"split_type":[0,0,0,0,0,0,0,0,0,0,0,0,0,0,0,0,0,0,0,0,0,0,0,0,0,0,0,0,0,0,0,0,0,0,0,0,0,0,0,0,0,0,0,0,0,0,0,0,0,0,0,0,0,0,0,0,0,0,0,0,0,0,0],"sum_hessian":[4.672E3,2.371E3,2.301E3,1.661E3,7.1E2,1.971E3,3.3E2,1.004E3,6.57E2,2.9E2,4.2E2,1.04E3,9.31E2,1.64E2,1.66E2,1.1E2,8.94E2,3.84E2,2.73E2,1.63E2,1.27E2,1.67E2,2.53E2,2.76E2,7.64E2,5.48E2,3.83E2,7.3E1,9.1E1,1.28E2,3.8E1,5.84E2,3.1E2,1.27E2,1.46E2,7.3E1,5.4E1,1.09E2,5.8E1,1.46E2,1.07E2,1.09E2,1.67E2,2.73E2,4.91E2,2.56E2,2.92E2,2.55E2,1.28E2,3E0,5.5E1,7.3E1,7.3E1,5.5E1,5.2E1,7.4E1,3.5E1,9.2E1,7.5E1,5.4E1,2.19E2,2.38E2,2.53E2],"tree_param":{"num_deleted":"0","num_feature":"5","num_nodes":"63","size_leaf_vector":"1"}},{"base_weights":[9.519349E1,-3.6221793E4,3.751648E4,-4.488882E4,-1.3481694E4,2.9121855E4,8.741583E4,-4.8992625E4,-3.6045137E4,-2.157415E4,-6.257411E3,2.0646855E4,3.972349E4,7.3996695E4,1.001508E5,-5.1389336E4,-4.562056E3,-3.9378372E3,-3.1538074E3,-2.6405621E4,-1.7084576E4,-9.592509E3,-3.127279E3,8.193422E3,2.5148355E4,3.598806E4,4.856592E4,6.24176E3,7.9218813E3,9.472706E3,1.155229E4,-5.761435E3,-5.031003E3,-2.7544277E3,-2.2546155E3,-1.9804453E4,-1.5594049E4,-1.235985E4,-8.060093E3,-4.404846E3,-1.1320061E3,3.0000515E3,1.1253625E4,2.2308719E4,2.7246492E4,3.253416E3,3.8933645E3,4.552281E3,5.5476284E3,-2.0374908E3,-1.0139013E3,-1.5784047E3,-6.613117E2,-1.2481542E3,-2.7117188E2,-8.28125E-2,-8.1333514E2,-5.664176E2,-3.6889642E2,-8.4286354E1,-4.837944E2,1.708443E2,5.502186E2,9.689339E2,1.4840067E3,1.8788655E3,2.3174812E3,2.58467E3,2.863701E3],"categories":[],"categories_nodes":[],"categories_segments":[],"categories_sizes":[],"default_left":[0,0,0,0,0,0,0,0,0,0,0,0,0,0,0,0,0,0,0,0,0,0,0,0,0,0,0,0,0,0,0,0,0,0,0,0,0,0,0,0,0,0,0,0,0,0,0,0,0,0,0,0,0,0,0,0,0,0,0,0,0,0,0,0,0,0,0,0,0],"id":16,"left_children":[1,3,5,7,9,11,13,15,17,19,21,23,25,27,29,31,-1,-1,-1,33,35,37,39,41,43,45,47,-1,-1,-1,-1,-1,-1,-1,-1,49,51,53,55,57,59,61,63,65,67,-1,-1,-1,-1,-1,-1,-1,-1,-1,-1,-1,-1,-1,-1,-1,-1,-1,-1,-1,-1,-1,-1,-1,-1],"loss_changes":[6.352099E12,4.6689E11,9.617303E11,6.0548973E10,3.8216196E10,1.7636157E11,4.915462E10,7.1114424E9,6.990725E9,6.2514627E9,3.6028764E9,6.134684E10,2.7153662E10,5.032444E9,2.980184E9,1.6429875E9,0E0,0E0,0E0,2.49856E7,3.5198157E8,6.128179E8,4.5639974E8,4.6228193E9,4.1942712E9,5.030871E9,2.879062E9,0E0,0E0,0E0,0E0,0E0,0E0,0E0,0E0,9.115853E7,8.331674E7,3.4251776E7,6.552883E7,7.827354E7,7.307346E7,3.460953E8,8.8849E8,6.2552474E8,1.5322317E8,0E0,0E0,0E0,0E0,0E0,0E0,0E0,0E0,0E0,0E0,0E0,0E0,0E0,0E0,0E0,0E0,0E0,0E0,0E0,0E0,0E0,0E0,0E0,0E0],"parents":[2147483647,0,0,1,1,2,2,3,3,4,4,5,5,6,6,7,7,8,8,9,9,10,10,11,11,12,12,13,13,14,14,15,15,19,19,20,20,21,21,22,22,23,23,24,24,25,25,26,26,35,35,36,36,37,37,38,38,39,39,40,40,41,41,42,42,43,43,44,44],"right_children":[2,4,6,8,10,12,14,16,18,20,22,24,26,28,30,32,-1,-1,-1,34,36,38,40,42,44,46,48,-1,-1,-1,-1,-1,-1,-1,-1,50,52,54,56,58,60,62,64,66,68,-1,-1,-1,-1,-1,-1,-1,-1,-1,-1,-1,-1,-1,-1,-1,-1,-1,-1,-1,-1,-1,-1,-1,-1],"split_conditions":[3.5136297E5,1.9138678E5,6.765926E5,1.1825146E5,2.7548397E5,5.134378E5,8.26457E5,9.226969E4,1.6324394E5,2.365353E5,3.1590116E5,4.3622706E5,5.800657E5,6.941289E5,9.048539E5,6.667679E4,-4.562056E3,-3.9378372E3,-3.1538074E3,2.1508952E5,2.5358094E5,2.9718703E5,3.3592534E5,3.8876353E5,4.8309744E5,5.3993125E5,6.149178E5,6.24176E3,7.9218813E3,9.472706E3,1.155229E4,-5.761435E3,-5.031003E3,-2.7544277E3,-2.2546155E3,2.6006186E5,2.8222678E5,3.014516E5,2.832064E5,3.221271E5,3.62211E5,3.6785012E5,4.18908E5,4.654316E5,4.9703716E5,3.253416E3,3.8933645E3,4.552281E3,5.5476284E3,-2.0374908E3,-1.0139013E3,-1.5784047E3,-6.613117E2,-1.2481542E3,-2.7117188E2,-8.28125E-2,-8.1333514E2,-5.664176E2,-3.6889642E2,-8.4286354E1,-4.837944E2,1.708443E2,5.502186E2,9.689339E2,1.4840067E3,1.8788655E3,2.3174812E3,2.58467E3,2.863701E3],"split_indices":[2,0,2,0,0,2,0,0,0,0,1,1,0,1,0,0,0,0,0,0,0,0,1,1,0,1,0,0,0,0,0,0,0,0,0,2,3,1,2,2,4,0,0,0,0,0,0,0,0,0,0,0,0,0,0,0,0,0,0,0,0,0,0,0,0,0,0,0,0],"split_type":[0,0,0,0,0,0,0,0,0,0,0,0,0,0,0,0,0,0,0,0,0,0,0,0,0,0,0,0,0,0,0,0,0,0,0,0,0,0,0,0,0,0,0,0,0,0,0,0,0,0,0,0,0,0,0,0,0,0,0,0,0,0,0,0,0,0,0,0,0],"sum_hessian":[4.672E3,2.371E3,2.301E3,1.716E3,6.55E2,1.971E3,3.3E2,1.169E3,5.47E2,3.08E2,3.47E2,1.097E3,8.74E2,1.64E2,1.66E2,6.75E2,4.94E2,3.1E2,2.37E2,1.46E2,1.62E2,1.67E2,1.8E2,2.92E2,8.05E2,6.18E2,2.56E2,5.5E1,1.09E2,1.28E2,3.8E1,9.2E1,5.83E2,1.08E2,3.8E1,5.3E1,1.09E2,5.7E1,1.1E2,1.09E2,7.1E1,1.09E2,1.83E2,3.47E2,4.58E2,2.9E2,3.28E2,1.83E2,7.3E1,4.9E1,4E0,1.06E2,3E0,5.6E1,1E0,1E0,1.09E2,3.7E1,7.2E1,6.7E1,4E0,7.3E1,3.6E1,1.3E2,5.3E1,7.3E1,2.74E2,2.38E2,2.2E2],"tree_param":{"num_deleted":"0","num_feature":"5","num_nodes":"69","size_leaf_vector":"1"}},{"base_weights":[9.18144E1,-3.2336502E4,3.4083242E4,-4.012452E4,-1.0999618E4,2.672541E4,8.028403E4,-4.394392E4,-3.1675176E4,-1.7820982E4,-4.55719E3,1.9711076E4,3.7266453E4,6.84028E4,9.0261625E4,-4.600426E4,-4.0463364E3,-3.4877148E3,-2.7846719E3,-2.2043367E4,-1.3951216E4,-7.1386675E3,-1.9168025E3,8.379291E3,2.3407047E4,3.426051E4,4.698406E4,5.99055E3,7.283156E3,8.524815E3,1.0453022E4,-5.2760757E3,-4.519659E3,-2.4281802E3,-1.9507051E3,-1.5186358E4,-1.2227102E3,-8.7081635E2,-5.8271636E3,-3.1971667E3,-2.9909543E2,4.7381484E3,1.1963432E4,2.124319E4,2.5997125E4,3.098785E3,3.6901833E3,4.2937573E3,5.0519844E3,-8.9328955E2,-1.5443076E3,-5.9784863E2,-1.9379251E2,-6.9395575E2,-2.9023218E2,8.3725E1,-1.2341357E2,2.47994E2,6.9323285E2,1.0262911E3,1.4395903E3,1.945193E3,2.239339E3,2.2641882E3,2.6463687E3],"categories":[],"categories_nodes":[],"categories_segments":[],"categories_sizes":[],"default_left":[0,0,0,0,0,0,0,0,0,0,0,0,0,0,0,0,0,0,0,0,0,0,0,0,0,0,0,0,0,0,0,0,0,0,0,0,0,0,0,0,0,0,0,0,0,0,0,0,0,0,0,0,0,0,0,0,0,0,0,0,0,0,0,0,0],"id":17,"left_children":[1,3,5,7,9,11,13,15,17,19,21,23,25,27,29,31,-1,-1,-1,33,35,37,39,41,43,45,47,-1,-1,-1,-1,-1,-1,-1,-1,49,-1,-1,51,53,55,57,59,61,63,-1,-1,-1,-1,-1,-1,-1,-1,-1,-1,-1,-1,-1,-1,-1,-1,-1,-1,-1,-1],"loss_changes":[5.152079E12,3.97042E11,7.735919E11,5.5147758E10,2.808827E10,1.4492408E11,3.0930764E10,6.772228E9,5.758714E9,4.774093E9,2.2424463E9,4.943397E10,2.134986E10,1.1689656E9,3.0353654E9,1.7027564E9,0E0,0E0,0E0,3.6091494E8,1.6568525E8,2.930089E8,3.408007E8,3.7670728E9,4.452614E9,4.0775188E9,4.4905267E8,0E0,0E0,0E0,0E0,0E0,0E0,0E0,0E0,9.742336E6,0E0,0E0,4.373555E7,8.137421E7,7.966041E7,7.1118106E8,4.6031462E8,5.7809306E8,3.0097408E7,0E0,0E0,0E0,0E0,0E0,0E0,0E0,0E0,0E0,0E0,0E0,0E0,0E0,0E0,0E0,0E0,0E0,0E0,0E0,0E0],"parents":[2147483647,0,0,1,1,2,2,3,3,4,4,5,5,6,6,7,7,8,8,9,9,10,10,11,11,12,12,13,13,14,14,15,15,19,19,20,20,21,21,22,22,23,23,24,24,25,25,26,26,35,35,38,38,39,39,40,40,41,41,42,42,43,43,44,44],"right_children":[2,4,6,8,10,12,14,16,18,20,22,24,26,28,30,32,-1,-1,-1,34,36,38,40,42,44,46,48,-1,-1,-1,-1,-1,-1,-1,-1,50,-1,-1,52,54,56,58,60,62,64,-1,-1,-1,-1,-1,-1,-1,-1,-1,-1,-1,-1,-1,-1,-1,-1,-1,-1,-1,-1],"split_conditions":[3.5752453E5,1.9481192E5,6.8307475E5,1.2163024E5,2.83511E5,5.2333122E5,8.26457E5,9.34437E4,1.6640031E5,2.4384322E5,3.223682E5,4.4140306E5,5.905787E5,7.27152E5,9.048539E5,6.5239332E4,-4.0463364E3,-3.4877148E3,-2.7846719E3,2.140301E5,2.689109E5,3.0621353E5,3.3858316E5,4.0032647E5,4.9237388E5,5.519188E5,6.100546E5,5.99055E3,7.283156E3,8.524815E3,1.0453022E4,-5.2760757E3,-4.519659E3,-2.4281802E3,-1.9507051E3,2.356561E5,-1.2227102E3,-8.7081635E2,3.267493E5,3.1918125E5,3.458745E5,3.826453E5,4.22306E5,4.7688303E5,4.9129878E5,3.098785E3,3.6901833E3,4.2937573E3,5.0519844E3,-8.9328955E2,-1.5443076E3,-5.9784863E2,-1.9379251E2,-6.9395575E2,-2.9023218E2,8.3725E1,-1.2341357E2,2.47994E2,6.9323285E2,1.0262911E3,1.4395903E3,1.945193E3,2.239339E3,2.2641882E3,2.6463687E3],"split_indices":[0,0,0,4,0,1,0,0,0,1,1,1,0,1,1,0,0,0,0,2,0,0,0,0,0,2,3,0,0,0,0,0,0,0,0,4,0,0,0,2,4,0,0,0,3,0,0,0,0,0,0,0,0,0,0,0,0,0,0,0,0,0,0,0,0],"split_type":[0,0,0,0,0,0,0,0,0,0,0,0,0,0,0,0,0,0,0,0,0,0,0,0,0,0,0,0,0,0,0,0,0,0,0,0,0,0,0,0,0,0,0,0,0,0,0,0,0,0,0,0,0,0,0,0,0,0,0,0,0,0,0,0,0],"sum_hessian":[4.672E3,2.391E3,2.281E3,1.751E3,6.4E2,1.969E3,3.12E2,1.203E3,5.48E2,3.1E2,3.3E2,1.184E3,7.85E2,1.46E2,1.66E2,7.48E2,4.55E2,2.94E2,2.54E2,1.46E2,1.64E2,1.66E2,1.64E2,2.92E2,8.92E2,6.03E2,1.82E2,5.5E1,9.1E1,1.28E2,3.8E1,7.3E1,6.75E2,7.3E1,7.3E1,9.1E1,7.3E1,7.3E1,9.3E1,9.1E1,7.3E1,1.46E2,1.46E2,4.91E2,4.01E2,2.75E2,3.28E2,9.1E1,9.1E1,5E0,8.6E1,8.9E1,4E0,5E0,8.6E1,3.3E1,4E1,7.3E1,7.3E1,8.9E1,5.7E1,1.99E2,2.92E2,5.5E1,3.46E2],"tree_param":{"num_deleted":"0","num_feature":"5","num_nodes":"65","size_leaf_vector":"1"}},{"base_weights":[8.906391E1,-2.9368926E4,3.0442783E4,-3.7359953E4,-1.3135369E4,2.3615578E4,7.102528E4,-4.0681133E4,-3.2117463E4,-2.1749389E4,-6.924136E3,1.6048605E4,3.1447389E4,6.011394E4,8.138065E4,-4.4137754E3,-3.9378145E3,-3.3995325E3,-2.8024446E3,-2.3394294E3,-1.7275566E4,-1.1463155E4,-3.8228809E3,6.278911E3,1.9738807E4,2.72514E4,3.726248E4,5.2497627E3,6.5586694E3,7.6754253E3,9.459667E3,-1.7593625E3,-8.222644E3,-1.2199102E4,-8.490373E3,-5.512564E3,-1.8370046E3,1.9487234E3,8.456948E3,1.7086596E4,2.1129582E4,2.5264478E3,2.955875E4,3.4528E3,4.2802944E3,-2.3291668E1,-1.3471489E3,-1.3174722E3,-1.1071813E3,-2.3788594E2,-8.921608E2,-6.239545E2,-4.1830768E2,-2.9575574E2,-9.3994965E1,1.0341119E2,3.2693588E2,6.56461E2,1.0160669E3,1.7309047E3,2.4577312E2,2.0243685E3,2.278936E3,1.3550149E3,2.9695017E3],"categories":[],"categories_nodes":[],"categories_segments":[],"categories_sizes":[],"default_left":[0,0,0,0,0,0,0,0,0,0,0,0,0,0,0,0,0,0,0,0,0,0,0,0,0,0,0,0,0,0,0,0,0,0,0,0,0,0,0,0,0,0,0,0,0,0,0,0,0,0,0,0,0,0,0,0,0,0,0,0,0,0,0,0,0],"id":18,"left_children":[1,3,5,7,9,11,13,15,17,19,21,23,25,27,29,-1,-1,-1,-1,-1,31,33,35,37,39,41,43,-1,-1,-1,-1,-1,45,47,49,51,53,55,57,59,61,-1,63,-1,-1,-1,-1,-1,-1,-1,-1,-1,-1,-1,-1,-1,-1,-1,-1,-1,-1,-1,-1,-1,-1],"loss_changes":[4.1793018E12,3.072118E11,6.361265E11,2.635989E10,4.1796297E10,1.1636218E11,3.2507953E10,2.6262897E9,3.820421E9,2.0096123E9,6.389211E9,3.610847E10,2.260376E10,3.434414E9,2.9500375E9,0E0,0E0,0E0,0E0,0E0,1.2023398E8,3.0116864E8,9.059254E8,2.5959926E9,2.3279698E9,1.8480497E9,4.6276936E9,0E0,0E0,0E0,0E0,0E0,2.065465E8,1.470464E7,8.419661E7,1.159767E8,1.2488016E8,1.1015872E8,5.2651827E8,7.905444E8,2.3563469E8,0E0,1.5607398E8,0E0,0E0,0E0,0E0,0E0,0E0,0E0,0E0,0E0,0E0,0E0,0E0,0E0,0E0,0E0,0E0,0E0,0E0,0E0,0E0,0E0,0E0],"parents":[2147483647,0,0,1,1,2,2,3,3,4,4,5,5,6,6,7,7,8,8,9,9,10,10,11,11,12,12,13,13,14,14,20,20,21,21,22,22,23,23,24,24,25,25,26,26,32,32,33,33,34,34,35,35,36,36,37,37,38,38,39,39,40,40,42,42],"right_children":[2,4,6,8,10,12,14,16,18,20,22,24,26,28,30,-1,-1,-1,-1,-1,32,34,36,38,40,42,44,-1,-1,-1,-1,-1,46,48,50,52,54,56,58,60,62,-1,64,-1,-1,-1,-1,-1,-1,-1,-1,-1,-1,-1,-1,-1,-1,-1,-1,-1,-1,-1,-1,-1,-1],"split_conditions":[3.5136297E5,1.8120166E5,6.773598E5,1.0154143E5,2.5358094E5,5.0441753E5,8.262068E5,7.501878E4,1.4004903E5,2.1508952E5,3.018171E5,4.334436E5,5.6242444E5,7.2760556E5,9.048539E5,-4.4137754E3,-3.9378145E3,-3.3995325E3,-2.8024446E3,-2.3394294E3,2.6006186E5,2.832064E5,3.267493E5,3.8226962E5,4.779605E5,5.3235425E5,5.945419E5,5.2497627E3,6.5586694E3,7.6754253E3,9.459667E3,-1.7593625E3,2.533879E5,2.689109E5,2.8222678E5,3.1609503E5,3.3613638E5,3.6285947E5,4.023902E5,4.9451888E5,4.9558803E5,2.5264478E3,5.1966388E5,3.4528E3,4.2802944E3,-2.3291668E1,-1.3471489E3,-1.3174722E3,-1.1071813E3,-2.3788594E2,-8.921608E2,-6.239545E2,-4.1830768E2,-2.9575574E2,-9.3994965E1,1.0341119E2,3.2693588E2,6.56461E2,1.0160669E3,1.7309047E3,2.4577312E2,2.0243685E3,2.278936E3,1.3550149E3,2.9695017E3],"split_indices":[2,0,1,0,0,0,1,1,1,0,0,0,1,0,2,0,0,0,0,0,2,2,0,2,0,0,0,0,0,0,0,0,1,0,3,0,0,0,0,3,3,0,2,0,0,0,0,0,0,0,0,0,0,0,0,0,0,0,0,0,0,0,0,0,0],"split_type":[0,0,0,0,0,0,0,0,0,0,0,0,0,0,0,0,0,0,0,0,0,0,0,0,0,0,0,0,0,0,0,0,0,0,0,0,0,0,0,0,0,0,0,0,0,0,0,0,0,0,0,0,0,0,0,0,0,0,0,0,0,0,0,0,0],"sum_hessian":[4.672E3,2.371E3,2.301E3,1.588E3,7.83E2,1.971E3,3.3E2,9.68E2,6.2E2,3.27E2,4.56E2,1.004E3,9.67E2,1.64E2,1.66E2,2.56E2,7.12E2,4.2E2,2E2,2.36E2,9.1E1,1.84E2,2.72E2,2.76E2,7.28E2,5.65E2,4.02E2,7.3E1,9.1E1,1.28E2,3.8E1,8.7E1,4E0,1.45E2,3.9E1,1.46E2,1.26E2,9.3E1,1.83E2,2.55E2,4.73E2,3.1E2,2.55E2,2.74E2,1.28E2,2E0,2E0,7.2E1,7.3E1,3E0,3.6E1,9.2E1,5.4E1,5.5E1,7.1E1,5.6E1,3.7E1,8.9E1,9.4E1,2.51E2,4E0,3.17E2,1.56E2,3E0,2.52E2],"tree_param":{"num_deleted":"0","num_feature":"5","num_nodes":"65","size_leaf_vector":"1"}},{"base_weights":[8.591159E1,-2.6442852E4,2.7421334E4,-3.3383086E4,-1.1300603E4,2.1458379E4,6.524516E4,-3.64781E4,-2.8328621E4,-1.8781176E4,-5.9510396E3,1.549644E4,2.9910994E4,5.656693E4,7.453801E4,-4.0312239E3,-3.546943E3,-3.0418044E3,-2.4829648E3,-2.078005E3,-1.5044071E4,-9.703533E3,-3.209268E3,6.378101E3,1.8808627E4,2.7336361E4,3.7678E4,5.018986E3,6.091756E3,6.998039E3,8.548159E3,-1.5101692E3,-4.324094E2,-1.0541615E4,-6.797328E3,-4.366324E3,-1.1243828E3,3.057914E3,9.262469E3,1.700246E4,2.0638757E3,2.4861246E4,2.9739265E3,3.4498806E3,4.1104224E3,-1.1237224E3,-9.2128143E2,-5.801748E2,-8.96873E2,-5.37804E2,-3.4859543E2,-2.4477632E2,-5.9405037E1,1.2759829E2,4.8467758E2,7.6449774E2,1.1191952E3,1.4439467E3,1.74768E3,1.5864277E3,2.501572E3],"categories":[],"categories_nodes":[],"categories_segments":[],"categories_sizes":[],"default_left":[0,0,0,0,0,0,0,0,0,0,0,0,0,0,0,0,0,0,0,0,0,0,0,0,0,0,0,0,0,0,0,0,0,0,0,0,0,0,0,0,0,0,0,0,0,0,0,0,0,0,0,0,0,0,0,0,0,0,0,0,0],"id":19,"left_children":[1,3,5,7,9,11,13,15,17,19,21,23,25,27,29,-1,-1,-1,-1,-1,31,33,35,37,39,41,43,-1,-1,-1,-1,-1,-1,45,47,49,51,53,55,57,-1,59,-1,-1,-1,-1,-1,-1,-1,-1,-1,-1,-1,-1,-1,-1,-1,-1,-1,-1,-1],"loss_changes":[3.3894674E12,2.4889786E11,5.1779705E11,2.4403378E10,2.9781524E10,9.982057E10,2.1025653E10,2.4568136E9,3.7920113E9,2.0105626E9,4.4649247E9,3.5185754E10,1.5407645E10,1.5480586E9,1.3996524E9,0E0,0E0,0E0,0E0,0E0,3.88096E6,3.7650432E8,6.0782234E8,2.9691658E9,2.4819139E9,2.9540024E9,7.8227046E8,0E0,0E0,0E0,0E0,0E0,0E0,2.68032E7,4.308493E7,1.2643405E8,6.311439E7,4.623972E8,4.356311E8,2.7891302E8,0E0,3.674931E7,0E0,0E0,0E0,0E0,0E0,0E0,0E0,0E0,0E0,0E0,0E0,0E0,0E0,0E0,0E0,0E0,0E0,0E0,0E0],"parents":[2147483647,0,0,1,1,2,2,3,3,4,4,5,5,6,6,7,7,8,8,9,9,10,10,11,11,12,12,13,13,14,14,20,20,21,21,22,22,23,23,24,24,25,25,26,26,33,33,34,34,35,35,36,36,37,37,38,38,39,39,41,41],"right_children":[2,4,6,8,10,12,14,16,18,20,22,24,26,28,30,-1,-1,-1,-1,-1,32,34,36,38,40,42,44,-1,-1,-1,-1,-1,-1,46,48,50,52,54,56,58,-1,60,-1,-1,-1,-1,-1,-1,-1,-1,-1,-1,-1,-1,-1,-1,-1,-1,-1,-1,-1],"split_conditions":[3.5170303E5,1.841462E5,6.8307475E5,1.0455852E5,2.602779E5,5.1983244E5,8.312482E5,7.149088E4,1.4018308E5,2.140301E5,3.0453166E5,4.4140306E5,5.882148E5,7.7771744E5,9.048539E5,-4.0312239E3,-3.546943E3,-3.0418044E3,-2.4829648E3,-2.078005E3,2.688684E5,2.962135E5,3.3334416E5,3.9789078E5,4.8912756E5,5.520451E5,6.149178E5,5.018986E3,6.091756E3,6.998039E3,8.548159E3,-1.5101692E3,-4.324094E2,2.7548397E5,3.1062447E5,3.1590116E5,3.3592534E5,3.6732516E5,4.18908E5,4.6784453E5,2.0638757E3,5.162644E5,2.9739265E3,3.4498806E3,4.1104224E3,-1.1237224E3,-9.2128143E2,-5.801748E2,-8.96873E2,-5.37804E2,-3.4859543E2,-2.4477632E2,-5.9405037E1,1.2759829E2,4.8467758E2,7.6449774E2,1.1191952E3,1.4439467E3,1.74768E3,1.5864277E3,2.501572E3],"split_indices":[0,0,0,0,0,0,0,1,0,2,0,1,0,2,0,0,0,0,0,0,1,3,0,0,1,0,0,0,0,0,0,0,0,0,4,1,1,2,0,0,0,1,0,0,0,0,0,0,0,0,0,0,0,0,0,0,0,0,0,0,0],"split_type":[0,0,0,0,0,0,0,0,0,0,0,0,0,0,0,0,0,0,0,0,0,0,0,0,0,0,0,0,0,0,0,0,0,0,0,0,0,0,0,0,0,0,0,0,0,0,0,0,0,0,0,0,0,0,0,0,0,0,0,0,0],"sum_hessian":[4.672E3,2.371E3,2.301E3,1.625E3,7.46E2,1.989E3,3.12E2,1.004E3,6.21E2,3.1E2,4.36E2,1.168E3,8.21E2,1.65E2,1.47E2,2.01E2,8.03E2,3.84E2,2.37E2,1.99E2,1.11E2,1.83E2,2.53E2,3.12E2,8.56E2,6.2E2,2.01E2,7.2E1,9.3E1,1.09E2,3.8E1,1.1E2,1E0,1.4E2,4.3E1,1.62E2,9.1E1,1.46E2,1.66E2,4.36E2,4.2E2,3.11E2,3.09E2,1.1E2,9.1E1,8.7E1,5.3E1,3.2E1,1.1E1,7.3E1,8.9E1,2.5E1,6.6E1,7.4E1,7.2E1,9.3E1,7.3E1,7.3E1,3.63E2,7E0,3.04E2],"tree_param":{"num_deleted":"0","num_feature":"5","num_nodes":"61","size_leaf_vector":"1"}},{"base_weights":[8.313835E1,-2.3808604E4,2.4701352E4,-3.0286082E4,-1.0649773E4,1.914507E4,5.7729406E4,-3.3046633E4,-2.6130262E4,-1.761706E4,-5.6258784E3,1.2992925E4,2.5512592E4,4.9746145E4,6.726448E4,-4.0355735E3,-3.2552932E4,-2.783291E3,-2.318364E3,-1.8927125E3,-1.4050731E4,-9.295691E3,-3.1184006E3,5.39028E3,1.6098931E4,2.2485764E4,3.0864682E4,4.27156E3,5.398501E3,6.424812E3,8.244684E3,-3.387364E3,-3.1409614E3,-1.4321996E3,-6.4663438E3,-9.886909E3,-6.9053545E3,-4.4998604E3,-1.4948339E3,2.3947703E3,7.6995557E3,1.4140691E4,1.7171578E4,2.0715584E4,2.4629844E4,2.894534E3,3.5869985E3,7.89375E1,-1.1566615E3,-1.0675865E3,-8.975009E2,-1.5094922E2,-7.30206E2,-5.092837E2,-3.415375E2,-2.0014911E2,-2.0833023E1,1.16665245E2,3.9748767E2,6.0025336E2,9.01359E2,1.4345245E3,9.212188E1,6.658781E2,1.7203223E3,3.5036093E2,2.0755205E3,2.7522345E2,2.4699392E3],"categories":[],"categories_nodes":[],"categories_segments":[],"categories_sizes":[],"default_left":[0,0,0,0,0,0,0,0,0,0,0,0,0,0,0,0,0,0,0,0,0,0,0,0,0,0,0,0,0,0,0,0,0,0,0,0,0,0,0,0,0,0,0,0,0,0,0,0,0,0,0,0,0,0,0,0,0,0,0,0,0,0,0,0,0,0,0,0,0],"id":20,"left_children":[1,3,5,7,9,11,13,15,17,19,21,23,25,27,29,-1,31,-1,-1,-1,33,35,37,39,41,43,45,-1,-1,-1,-1,-1,-1,-1,47,49,51,53,55,57,59,61,63,65,67,-1,-1,-1,-1,-1,-1,-1,-1,-1,-1,-1,-1,-1,-1,-1,-1,-1,-1,-1,-1,-1,-1,-1,-1],"loss_changes":[2.749116E12,2.0185743E11,4.213421E11,1.7365991E10,2.7343176E10,7.691947E10,2.1849965E10,2.118058E9,2.5606226E9,1.266516E9,4.1763164E9,2.3645143E10,1.4987493E10,3.1774802E9,1.4806548E9,0E0,2.8894822E8,0E0,0E0,0E0,9.66656E7,1.9317043E8,6.055831E8,2.0083768E9,1.2548506E9,1.8505073E9,2.2953E9,0E0,0E0,0E0,0E0,0E0,0E0,0E0,1.9416106E8,9.224192E6,7.460032E7,7.713792E7,8.236371E7,2.4569446E8,3.1383654E8,6.844416E8,3.715072E7,1.6390554E8,3.5197747E8,0E0,0E0,0E0,0E0,0E0,0E0,0E0,0E0,0E0,0E0,0E0,0E0,0E0,0E0,0E0,0E0,0E0,0E0,0E0,0E0,0E0,0E0,0E0,0E0],"parents":[2147483647,0,0,1,1,2,2,3,3,4,4,5,5,6,6,7,7,8,8,9,9,10,10,11,11,12,12,13,13,14,14,16,16,20,20,21,21,22,22,23,23,24,24,25,25,26,26,34,34,35,35,36,36,37,37,38,38,39,39,40,40,41,41,42,42,43,43,44,44],"right_children":[2,4,6,8,10,12,14,16,18,20,22,24,26,28,30,-1,32,-1,-1,-1,34,36,38,40,42,44,46,-1,-1,-1,-1,-1,-1,-1,48,50,52,54,56,58,60,62,64,66,68,-1,-1,-1,-1,-1,-1,-1,-1,-1,-1,-1,-1,-1,-1,-1,-1,-1,-1,-1,-1,-1,-1,-1,-1],"split_conditions":[3.5136297E5,1.8104342E5,6.765926E5,1.0054467E5,2.5358094E5,5.042229E5,8.302833E5,6.425809E4,1.3305156E5,2.1427958E5,3.018171E5,4.3644528E5,5.693789E5,7.253847E5,9.22734E5,-4.0355735E3,8.182566E4,-2.783291E3,-2.318364E3,-1.8927125E3,2.6006186E5,2.832064E5,3.2668978E5,3.9347522E5,4.7876828E5,5.356775E5,5.998347E5,4.27156E3,5.398501E3,6.424812E3,8.244684E3,-3.387364E3,-3.1409614E3,-1.4321996E3,2.533879E5,2.689109E5,2.8222678E5,3.1609503E5,3.431039E5,3.6785012E5,4.061211E5,4.9451888E5,4.5892903E5,4.891659E5,5.180296E5,2.894534E3,3.5869985E3,7.89375E1,-1.1566615E3,-1.0675865E3,-8.975009E2,-1.5094922E2,-7.30206E2,-5.092837E2,-3.415375E2,-2.0014911E2,-2.0833023E1,1.16665245E2,3.9748767E2,6.0025336E2,9.01359E2,1.4345245E3,9.212188E1,6.658781E2,1.7203223E3,3.5036093E2,2.0755205E3,2.7522345E2,2.4699392E3],"split_indices":[2,1,2,1,0,1,4,0,0,1,0,0,4,2,0,0,1,0,0,0,2,2,1,0,0,1,0,0,0,0,0,0,0,0,1,0,3,0,0,0,1,3,3,0,2,0,0,0,0,0,0,0,0,0,0,0,0,0,0,0,0,0,0,0,0,0,0,0,0],"split_type":[0,0,0,0,0,0,0,0,0,0,0,0,0,0,0,0,0,0,0,0,0,0,0,0,0,0,0,0,0,0,0,0,0,0,0,0,0,0,0,0,0,0,0,0,0,0,0,0,0,0,0,0,0,0,0,0,0,0,0,0,0,0,0,0,0,0,0,0,0],"sum_hessian":[4.672E3,2.371E3,2.301E3,1.588E3,7.83E2,1.971E3,3.3E2,9.5E2,6.38E2,3.27E2,4.56E2,1.004E3,9.67E2,1.83E2,1.47E2,5.5E1,8.95E2,3.99E2,2.39E2,2.36E2,9.1E1,1.84E2,2.72E2,2.92E2,7.12E2,6.21E2,3.46E2,7.3E1,1.1E2,1.27E2,2E1,4.02E2,4.93E2,8.7E1,4E0,1.45E2,3.9E1,1.46E2,1.26E2,1.28E2,1.64E2,2.57E2,4.55E2,3.46E2,2.75E2,2.55E2,9.1E1,2E0,2E0,7.2E1,7.3E1,3E0,3.6E1,9.2E1,5.4E1,9E1,3.6E1,7.3E1,5.5E1,7.4E1,9E1,2.53E2,4E0,2E0,4.53E2,1E0,3.45E2,1E0,2.74E2],"tree_param":{"num_deleted":"0","num_feature":"5","num_nodes":"69","size_leaf_vector":"1"}},{"base_weights":[7.866193E1,-2.1437854E4,2.2249424E4,-2.6866828E4,-8.717187E3,1.73964E4,5.3033023E4,-2.9510727E4,-2.2587926E4,-1.3990443E4,-4.190245E3,1.2731133E4,2.4526492E4,4.657197E4,6.1769957E4,-3.8073848E3,-2.9151143E4,-2.4571274E3,-1.9856197E4,-1.608495E4,-1.0548863E4,-6.993204E3,-2.4414E3,5.1579434E3,1.5371309E4,2.225124E4,3.0278955E4,3.5787258E3,4.812017E3,5.8760044E3,7.459475E3,-3.0455261E3,-2.7881785E3,-2.112867E3,-1.8613119E3,-1.6304497E3,-1.02391907E3,-1.1513896E4,-9.202291E3,-7.9744526E3,-5.3944873E3,-3.3858606E3,-9.0577924E2,2.1592788E3,7.2210234E3,1.3868063E4,1.703123E4,2.0361152E3,2.396156E3,2.7866882E3,3.333198E3,-7.517973E2,-1.2054584E3,7.3675E1,-9.570413E2,-1.5566719E2,-8.0296924E2,-4.2668405E2,-6.757414E2,-3.9998923E2,-2.6532846E2,-6.666668E1,-3.714049E2,1.05157265E2,3.5844748E2,5.6782874E2,8.6861145E2,1.1906055E3,1.4303146E3,1.4819452E3,1.7387225E3],"categories":[],"categories_nodes":[],"categories_segments":[],"categories_sizes":[],"default_left":[0,0,0,0,0,0,0,0,0,0,0,0,0,0,0,0,0,0,0,0,0,0,0,0,0,0,0,0,0,0,0,0,0,0,0,0,0,0,0,0,0,0,0,0,0,0,0,0,0,0,0,0,0,0,0,0,0,0,0,0,0,0,0,0,0,0,0,0,0,0,0],"id":21,"left_children":[1,3,5,7,9,11,13,15,17,19,21,23,25,27,29,-1,31,-1,33,35,37,39,41,43,45,47,49,-1,-1,-1,-1,-1,-1,-1,-1,-1,-1,51,53,55,57,59,61,63,65,67,69,-1,-1,-1,-1,-1,-1,-1,-1,-1,-1,-1,-1,-1,-1,-1,-1,-1,-1,-1,-1,-1,-1,-1,-1],"loss_changes":[2.2296734E12,1.6357648E11,3.4298135E11,1.8135646E10,1.6914174E10,6.5882685E10,1.4792065E10,2.0431503E9,2.9741875E9,2.194686E9,1.8652728E9,2.401416E10,9.613705E9,1.3501399E9,6.350111E8,0E0,7.8472806E8,0E0,4.013261E7,9.230746E7,5.9080704E7,1.8758656E8,3.421125E8,1.9207772E9,1.992065E9,1.3450281E9,6.9124096E8,0E0,0E0,0E0,0E0,0E0,0E0,0E0,0E0,0E0,0E0,6.061363E7,2.192599E8,1.9052544E7,6.184435E7,5.5511296E7,5.930125E7,1.9988269E8,3.6882432E8,2.3432397E8,7.303987E7,0E0,0E0,0E0,0E0,0E0,0E0,0E0,0E0,0E0,0E0,0E0,0E0,0E0,0E0,0E0,0E0,0E0,0E0,0E0,0E0,0E0,0E0,0E0,0E0],"parents":[2147483647,0,0,1,1,2,2,3,3,4,4,5,5,6,6,7,7,8,8,9,9,10,10,11,11,12,12,13,13,14,14,16,16,18,18,19,19,20,20,21,21,22,22,23,23,24,24,25,25,26,26,37,37,38,38,39,39,40,40,41,41,42,42,43,43,44,44,45,45,46,46],"right_children":[2,4,6,8,10,12,14,16,18,20,22,24,26,28,30,-1,32,-1,34,36,38,40,42,44,46,48,50,-1,-1,-1,-1,-1,-1,-1,-1,-1,-1,52,54,56,58,60,62,64,66,68,70,-1,-1,-1,-1,-1,-1,-1,-1,-1,-1,-1,-1,-1,-1,-1,-1,-1,-1,-1,-1,-1,-1,-1,-1],"split_conditions":[3.5136297E5,1.8734927E5,6.8307475E5,1.0723837E5,2.689109E5,5.2343888E5,8.372222E5,6.208438E4,1.4004903E5,2.365353E5,3.0621353E5,4.4140306E5,5.862005E5,6.8645006E5,9.22734E5,-3.8073848E3,8.6649414E4,-2.4571274E3,1.6873425E5,2.3893028E5,2.6006186E5,2.962135E5,3.3334416E5,3.9347522E5,4.9142112E5,5.520064E5,6.102386E5,3.5787258E3,4.812017E3,5.8760044E3,7.459475E3,-3.0455261E3,-2.7881785E3,-2.112867E3,-1.8613119E3,-1.6304497E3,-1.02391907E3,2.3569461E5,2.533879E5,2.533879E5,3.0605666E5,3.1873947E5,3.5990438E5,3.6785012E5,4.1205025E5,4.7009094E5,4.9129878E5,2.0361152E3,2.396156E3,2.7866882E3,3.333198E3,-7.517973E2,-1.2054584E3,7.3675E1,-9.570413E2,-1.5566719E2,-8.0296924E2,-4.2668405E2,-6.757414E2,-3.9998923E2,-2.6532846E2,-6.666668E1,-3.714049E2,1.05157265E2,3.5844748E2,5.6782874E2,8.6861145E2,1.1906055E3,1.4303146E3,1.4819452E3,1.7387225E3],"split_indices":[2,0,0,0,0,0,1,0,1,0,0,1,0,3,0,0,2,0,1,4,2,3,0,0,0,1,2,0,0,0,0,0,0,0,0,0,0,3,1,1,4,4,4,0,2,0,3,0,0,0,0,0,0,0,0,0,0,0,0,0,0,0,0,0,0,0,0,0,0,0,0],"split_type":[0,0,0,0,0,0,0,0,0,0,0,0,0,0,0,0,0,0,0,0,0,0,0,0,0,0,0,0,0,0,0,0,0,0,0,0,0,0,0,0,0,0,0,0,0,0,0,0,0,0,0,0,0,0,0,0,0,0,0,0,0,0,0,0,0,0,0,0,0,0,0],"sum_hessian":[4.672E3,2.371E3,2.301E3,1.661E3,7.1E2,1.989E3,3.12E2,1.023E3,6.38E2,3.27E2,3.83E2,1.204E3,7.85E2,1.83E2,1.29E2,3.7E1,9.86E2,3.65E2,2.73E2,2.01E2,1.26E2,1.46E2,2.37E2,3.12E2,8.92E2,5.66E2,2.19E2,2.6E1,1.57E2,1.09E2,2E1,4.75E2,5.11E2,1.27E2,1.46E2,1.92E2,9E0,6.9E1,5.7E1,8.8E1,5.8E1,1.46E2,9.1E1,1.28E2,1.84E2,4.73E2,4.19E2,2.75E2,2.91E2,1.28E2,9.1E1,1E1,5.9E1,2E0,5.5E1,1E0,8.7E1,3.4E1,2.4E1,7.7E1,6.9E1,8.5E1,6E0,7.3E1,5.5E1,9.2E1,9.2E1,9.1E1,3.82E2,6.4E1,3.55E2],"tree_param":{"num_deleted":"0","num_feature":"5","num_nodes":"71","size_leaf_vector":"1"}},{"base_weights":[7.406956E1,-1.9305746E4,2.0043162E4,-2.3923986E4,-7.188639E3,1.5522094E4,4.6917793E4,-2.6035408E4,-1.893162E4,-1.1460038E4,-3.3752744E3,1.1049453E4,2.1304398E4,3.9474766E4,5.3990734E4,-2.8345564E4,-2.476167E4,-2.0686326E3,-1.6809833E3,-1.3965236E4,-9.130442E3,-5.163158E3,-1.6971543E3,4.6576997E3,1.3530213E4,1.9202543E4,2.6153094E4,3.1268113E3,4.185075E3,5.064129E3,6.368531E3,-3.4366658E3,-2.767591E3,-2.5686086E3,-2.326535E3,-1.4183788E3,-9.038132E2,-1.0615946E4,-8.31819E3,-7.819899E3,-4.666063E3,-2.3816477E3,-6.27829E2,2.5372793E3,7.0349277E3,1.199721E4,1.4560307E4,1.7305777E4,2.0552014E3,2.4598743E3,2.9664546E3,-5.289266E2,-1.1296744E3,-8.4531915E2,-2.6273752E2,-8.2575354E2,-1.8580522E2,-1.25609375E2,-4.9111646E2,-2.2135466E2,-7.639406E2,-4.8893574E1,-5.244625E2,1.27380615E2,4.107944E2,4.280904E2,7.5913226E2,1.2100414E3,6.126953E1,1.3933857E3,1.5652825E3,7.9606255E1,1.7367158E3],"categories":[],"categories_nodes":[],"categories_segments":[],"categories_sizes":[],"default_left":[0,0,0,0,0,0,0,0,0,0,0,0,0,0,0,0,0,0,0,0,0,0,0,0,0,0,0,0,0,0,0,0,0,0,0,0,0,0,0,0,0,0,0,0,0,0,0,0,0,0,0,0,0,0,0,0,0,0,0,0,0,0,0,0,0,0,0,0,0,0,0,0,0],"id":22,"left_children":[1,3,5,7,9,11,13,15,17,19,21,23,25,27,29,31,33,-1,-1,35,37,39,41,43,45,47,49,-1,-1,-1,-1,-1,-1,-1,-1,-1,-1,51,53,55,57,59,61,63,65,67,69,71,-1,-1,-1,-1,-1,-1,-1,-1,-1,-1,-1,-1,-1,-1,-1,-1,-1,-1,-1,-1,-1,-1,-1,-1,-1],"loss_changes":[1.8088255E12,1.32564386E11,2.7896932E11,1.7605984E10,1.0646516E10,5.076481E10,1.529394E10,2.8409856E9,1.56595E9,1.6758415E9,1.03533594E9,1.7600995E10,8.2520965E9,1.908736E9,2.1976187E9,7.463895E8,4.868014E8,0E0,0E0,3.0099456E7,1.0837094E8,1.8538189E8,1.3098694E8,1.5598971E9,1.091797E9,1.1877745E9,6.730056E8,0E0,0E0,0E0,0E0,0E0,0E0,0E0,0E0,0E0,0E0,1.3607373E8,6.2299136E7,4.9885056E7,1.141847E8,8.031174E7,4.360513E7,3.2617754E8,1.9275418E8,3.779584E8,1.0698752E8,2.4662016E8,0E0,0E0,0E0,0E0,0E0,0E0,0E0,0E0,0E0,0E0,0E0,0E0,0E0,0E0,0E0,0E0,0E0,0E0,0E0,0E0,0E0,0E0,0E0,0E0,0E0],"parents":[2147483647,0,0,1,1,2,2,3,3,4,4,5,5,6,6,7,7,8,8,9,9,10,10,11,11,12,12,13,13,14,14,15,15,16,16,19,19,20,20,21,21,22,22,23,23,24,24,25,25,26,26,37,37,38,38,39,39,40,40,41,41,42,42,43,43,44,44,45,45,46,46,47,47],"right_children":[2,4,6,8,10,12,14,16,18,20,22,24,26,28,30,32,34,-1,-1,36,38,40,42,44,46,48,50,-1,-1,-1,-1,-1,-1,-1,-1,-1,-1,52,54,56,58,60,62,64,66,68,70,72,-1,-1,-1,-1,-1,-1,-1,-1,-1,-1,-1,-1,-1,-1,-1,-1,-1,-1,-1,-1,-1,-1,-1,-1,-1],"split_conditions":[3.5170303E5,1.9129297E5,6.7595294E5,1.21985266E5,2.7548397E5,5.1469162E5,8.26457E5,8.064951E4,1.6324394E5,2.365353E5,3.1590116E5,4.4140306E5,5.7960825E5,6.8738775E5,9.048539E5,6.208438E4,9.8300266E4,-2.0686326E3,-1.6809833E3,2.4326003E5,2.5358094E5,2.747033E5,3.3592534E5,4.0032647E5,4.8309744E5,5.38121E5,6.149178E5,3.1268113E3,4.185075E3,5.064129E3,6.368531E3,-3.4366658E3,-2.767591E3,-2.5686086E3,-2.326535E3,-1.4183788E3,-9.038132E2,2.3569461E5,2.8222678E5,2.7841528E5,2.7841528E5,3.427164E5,3.6259075E5,3.826453E5,4.022758E5,5.026048E5,5.0100678E5,5.0098278E5,2.0552014E3,2.4598743E3,2.9664546E3,-5.289266E2,-1.1296744E3,-8.4531915E2,-2.6273752E2,-8.2575354E2,-1.8580522E2,-1.25609375E2,-4.9111646E2,-2.2135466E2,-7.639406E2,-4.8893574E1,-5.244625E2,1.27380615E2,4.107944E2,4.280904E2,7.5913226E2,1.2100414E3,6.126953E1,1.3933857E3,1.5652825E3,7.9606255E1,1.7367158E3],"split_indices":[0,2,3,0,0,1,0,0,0,0,1,1,4,0,2,0,0,0,0,4,0,4,1,0,0,0,0,0,0,0,0,0,0,0,0,0,0,3,3,3,3,2,1,0,2,3,0,2,0,0,0,0,0,0,0,0,0,0,0,0,0,0,0,0,0,0,0,0,0,0,0,0,0],"split_type":[0,0,0,0,0,0,0,0,0,0,0,0,0,0,0,0,0,0,0,0,0,0,0,0,0,0,0,0,0,0,0,0,0,0,0,0,0,0,0,0,0,0,0,0,0,0,0,0,0,0,0,0,0,0,0,0,0,0,0,0,0,0,0,0,0,0,0,0,0,0,0,0,0],"sum_hessian":[4.672E3,2.371E3,2.301E3,1.716E3,6.55E2,1.971E3,3.3E2,1.203E3,5.13E2,3.08E2,3.47E2,1.113E3,8.58E2,1.64E2,1.66E2,4.2E2,7.83E2,2.76E2,2.37E2,1.46E2,1.62E2,1.67E2,1.8E2,3.12E2,8.01E2,6.02E2,2.56E2,4E1,1.24E2,1.28E2,3.8E1,3.7E1,3.83E2,4.74E2,3.09E2,1.38E2,8E0,5.3E1,1.09E2,2.4E1,1.43E2,1.09E2,7.1E1,1.66E2,1.46E2,3.27E2,4.74E2,2.56E2,3.46E2,1.83E2,7.3E1,7E0,4.6E1,1.06E2,3E0,2.2E1,2E0,1E1,1.33E2,1.07E2,2E0,7E1,1E0,9.3E1,7.3E1,2.6E1,1.2E2,3.24E2,3E0,3.1E2,1.64E2,1E0,2.55E2],"tree_param":{"num_deleted":"0","num_feature":"5","num_nodes":"73","size_leaf_vector":"1"}},{"base_weights":[6.8992584E1,-1.752063E4,1.7916365E4,-2.2112486E4,-7.9723564E3,1.3854479E4,4.2282652E4,-2.413665E4,-1.9065396E4,-1.285171E4,-4.3085737E3,9.226062E3,1.8548578E4,3.6208676E4,4.9548387E4,-2.8441667E3,-2.3642467E4,-2.0312471E3,-1.69075E3,-1.3951342E3,-1.0576293E4,-7.059522E3,-2.6099773E3,3.1870671E3,1.147703E4,1.5842044E4,2.1891035E4,2.8217563E3,3.8232478E3,4.62515E3,5.757684E3,-2.43488E3,-2.2709607E3,-1.074839E4,-4.778169E3,-7.20675E3,-4.0273657E3,-3.5780728E3,-1.4688748E3,1.01952734E3,4.656867E3,8.664439E3,1.2070994E4,1.4710023E4,1.7070992E4,2.0153619E3,2.520513E3,-1.0795867E3,-2.8579062E2,1.44075E2,-9.4043646E2,-7.7958203E2,-6.6229254E2,-1.4813359E2,-9.474323E2,-3.2404703E2,-4.8971518E2,-3.7814966E2,-1.281627E2,3.2640918E2,6.387793E1,4.8060147E2,-2.4732579E2,8.86797E2,-8.8972345E2,1.1517694E3,1.3099054E3,1.4762087E3,4.756594E2,4.0654532E2,1.7105914E3],"categories":[],"categories_nodes":[],"categories_segments":[],"categories_sizes":[],"default_left":[0,0,0,0,0,0,0,0,0,0,0,0,0,0,0,0,0,0,0,0,0,0,0,0,0,0,0,0,0,0,0,0,0,0,0,0,0,0,0,0,0,0,0,0,0,0,0,0,0,0,0,0,0,0,0,0,0,0,0,0,0,0,0,0,0,0,0,0,0,0,0],"id":23,"left_children":[1,3,5,7,9,11,13,15,17,19,21,23,25,27,29,-1,31,-1,-1,-1,33,35,37,39,41,43,45,-1,-1,-1,-1,-1,-1,47,49,51,53,55,57,59,61,63,65,67,69,-1,-1,-1,-1,-1,-1,-1,-1,-1,-1,-1,-1,-1,-1,-1,-1,-1,-1,-1,-1,-1,-1,-1,-1,-1,-1],"loss_changes":[1.4673023E12,1.0303314E11,2.290318E11,9.340518E9,1.3638324E10,4.30641E10,1.2813599E10,1.3507625E9,1.3761413E9,6.7314074E8,2.0329129E9,1.3611385E10,8.5820703E9,1.8968904E9,1.254359E9,0E0,1.3074432E7,0E0,0E0,0E0,5.940224E7,4.5528064E7,2.963264E8,8.681751E8,1.1166106E9,5.1265536E8,2.0197868E9,0E0,0E0,0E0,0E0,0E0,0E0,9.230336E6,1.5739902E8,2.706944E6,1.246465E8,4.959347E7,5.0148736E7,9.363168E7,1.8522752E8,5.4713754E8,1.9098829E8,8.16169E7,4.718592E7,0E0,0E0,0E0,0E0,0E0,0E0,0E0,0E0,0E0,0E0,0E0,0E0,0E0,0E0,0E0,0E0,0E0,0E0,0E0,0E0,0E0,0E0,0E0,0E0,0E0,0E0],"parents":[2147483647,0,0,1,1,2,2,3,3,4,4,5,5,6,6,7,7,8,8,9,9,10,10,11,11,12,12,13,13,14,14,16,16,20,20,21,21,22,22,23,23,24,24,25,25,26,26,33,33,34,34,35,35,36,36,37,37,38,38,39,39,40,40,41,41,42,42,43,43,44,44],"right_children":[2,4,6,8,10,12,14,16,18,20,22,24,26,28,30,-1,32,-1,-1,-1,34,36,38,40,42,44,46,-1,-1,-1,-1,-1,-1,48,50,52,54,56,58,60,62,64,66,68,70,-1,-1,-1,-1,-1,-1,-1,-1,-1,-1,-1,-1,-1,-1,-1,-1,-1,-1,-1,-1,-1,-1,-1,-1,-1,-1],"split_conditions":[3.463097E5,1.8104342E5,6.7595294E5,1.0060113E5,2.5358094E5,5.02904E5,8.302833E5,6.667679E4,1.3305156E5,2.0122989E5,2.9718703E5,4.22306E5,5.5909094E5,6.8738775E5,9.048539E5,-2.8441667E3,8.962085E4,-2.0312471E3,-1.69075E3,-1.3951342E3,2.6006186E5,2.962135E5,3.225341E5,3.8226962E5,4.6784453E5,5.293292E5,5.926214E5,2.8217563E3,3.8232478E3,4.62515E3,5.757684E3,-2.43488E3,-2.2709607E3,2.6019148E5,2.533879E5,2.689109E5,3.1579416E5,3.1884766E5,3.1918125E5,3.458745E5,4.3129597E5,4.819834E5,4.9132934E5,5.3777394E5,5.0978803E5,2.0153619E3,2.520513E3,-1.0795867E3,-2.8579062E2,1.44075E2,-9.4043646E2,-7.7958203E2,-6.6229254E2,-1.4813359E2,-9.474323E2,-3.2404703E2,-4.8971518E2,-3.7814966E2,-1.281627E2,3.2640918E2,6.387793E1,4.8060147E2,-2.4732579E2,8.86797E2,-8.8972345E2,1.1517694E3,1.3099054E3,1.4762087E3,4.756594E2,4.0654532E2,1.7105914E3],"split_indices":[0,1,3,0,0,0,4,0,0,4,0,0,0,0,1,0,0,0,0,0,2,3,0,2,0,2,0,0,0,0,0,0,0,1,1,0,4,3,2,4,4,1,1,3,0,0,0,0,0,0,0,0,0,0,0,0,0,0,0,0,0,0,0,0,0,0,0,0,0,0,0],"split_type":[0,0,0,0,0,0,0,0,0,0,0,0,0,0,0,0,0,0,0,0,0,0,0,0,0,0,0,0,0,0,0,0,0,0,0,0,0,0,0,0,0,0,0,0,0,0,0,0,0,0,0,0,0,0,0,0,0,0,0,0,0,0,0,0,0,0,0,0,0,0,0],"sum_hessian":[4.672E3,2.353E3,2.319E3,1.588E3,7.65E2,1.989E3,3.3E2,9.5E2,6.38E2,3.27E2,4.38E2,1.003E3,9.86E2,1.83E2,1.47E2,9.2E1,8.58E2,3.99E2,2.39E2,2.17E2,1.1E2,1.66E2,2.72E2,2.73E2,7.3E2,5.48E2,4.38E2,4E1,1.43E2,1.09E2,3.8E1,4.74E2,3.84E2,1.06E2,4E0,1.57E2,9E0,1.46E2,1.26E2,1.11E2,1.62E2,1.3E2,6E2,2.92E2,2.56E2,2.92E2,1.46E2,1.05E2,1E0,2E0,2E0,7.2E1,8.5E1,7E0,2E0,1.19E2,2.7E1,8E0,1.18E2,1.5E1,9.6E1,1.59E2,3E0,1.29E2,1E0,3.98E2,2.02E2,2.9E2,2E0,1E0,2.55E2],"tree_param":{"num_deleted":"0","num_feature":"5","num_nodes":"71","size_leaf_vector":"1"}},{"base_weights":[6.423964E1,-1.5656016E4,1.6262493E4,-1.9909926E4,-7.0142803E3,1.2471352E4,3.744195E4,-2.1731715E4,-1.7167469E4,-1.1569648E4,-3.7294338E3,8.532789E3,1.6624809E4,2.9737873E4,4.2836316E4,-2.8310051E3,-2.143444E4,-1.8216367E3,-1.5086991E3,-1.2424012E3,-9.242973E3,-5.986972E3,-1.9016097E3,3.7657874E3,1.0673537E4,1.4496442E4,1.9710602E4,2.553112E3,3.211847E4,3.9759626E3,5.0019434E3,-2.2614434E3,-2.0791375E3,-9.409721E3,-4.4596187E3,-6.4564165E3,-4.2341772E3,-2.570722E3,-6.9544806E2,2.0388662E3,5.702046E3,9.423292E3,1.1302671E4,1.3297271E4,1.5568375E4,1.8145468E3,2.212119E3,8.726125E2,3.228326E3,-9.455465E2,-2.715008E2,1.3447084E2,-8.7774066E2,-6.5156757E2,1.4532812E2,-3.0535602E2,-5.383325E2,-3.0490115E2,-1.9080225E2,-4.6912827E1,-3.3765982E2,4.9734047E1,2.8120923E2,3.4058716E2,6.167291E2,9.610039E2,-1.201125E2,1.0791572E3,1.2253871E3,6.7928906E2,1.3442357E3,3.8621875E2,1.5595238E3],"categories":[],"categories_nodes":[],"categories_segments":[],"categories_sizes":[],"default_left":[0,0,0,0,0,0,0,0,0,0,0,0,0,0,0,0,0,0,0,0,0,0,0,0,0,0,0,0,0,0,0,0,0,0,0,0,0,0,0,0,0,0,0,0,0,0,0,0,0,0,0,0,0,0,0,0,0,0,0,0,0,0,0,0,0,0,0,0,0,0,0,0,0],"id":24,"left_children":[1,3,5,7,9,11,13,15,17,19,21,23,25,27,29,-1,31,-1,-1,-1,33,35,37,39,41,43,45,-1,47,-1,-1,-1,-1,49,51,53,55,57,59,61,63,65,67,69,71,-1,-1,-1,-1,-1,-1,-1,-1,-1,-1,-1,-1,-1,-1,-1,-1,-1,-1,-1,-1,-1,-1,-1,-1,-1,-1,-1,-1],"loss_changes":[1.1901905E12,8.705789E10,1.8437053E11,7.565869E9,1.1688382E10,3.1822938E10,1.3230113E10,1.2529172E9,1.119617E9,5.37174E8,1.8743721E9,1.0215784E10,5.953585E9,6.5212416E8,2.4976097E9,0E0,2.2334669E8,0E0,0E0,0E0,3.1416832E7,1.4052147E8,2.032048E8,1.0349732E9,4.385915E8,5.2052787E8,1.0511647E9,0E0,6.521651E7,0E0,0E0,0E0,0E0,1.27744E6,1.3711229E8,8.399616E7,4.597005E7,4.584717E7,5.42413E7,1.976567E8,1.3603277E8,4.8375194E8,8.945254E7,1.6726016E8,3.1916032E7,0E0,0E0,0E0,0E0,0E0,0E0,0E0,0E0,0E0,0E0,0E0,0E0,0E0,0E0,0E0,0E0,0E0,0E0,0E0,0E0,0E0,0E0,0E0,0E0,0E0,0E0,0E0,0E0],"parents":[2147483647,0,0,1,1,2,2,3,3,4,4,5,5,6,6,7,7,8,8,9,9,10,10,11,11,12,12,13,13,14,14,16,16,20,20,21,21,22,22,23,23,24,24,25,25,26,26,28,28,33,33,34,34,35,35,36,36,37,37,38,38,39,39,40,40,41,41,42,42,43,43,44,44],"right_children":[2,4,6,8,10,12,14,16,18,20,22,24,26,28,30,-1,32,-1,-1,-1,34,36,38,40,42,44,46,-1,48,-1,-1,-1,-1,50,52,54,56,58,60,62,64,66,68,70,72,-1,-1,-1,-1,-1,-1,-1,-1,-1,-1,-1,-1,-1,-1,-1,-1,-1,-1,-1,-1,-1,-1,-1,-1,-1,-1,-1,-1],"split_conditions":[3.5136297E5,1.8120166E5,6.653997E5,1.0038341E5,2.5358094E5,5.042229E5,8.0925625E5,6.208438E4,1.3496008E5,2.1508952E5,3.0453166E5,4.419149E5,5.6242444E5,6.8738775E5,8.8941725E5,-2.8310051E3,7.90365E4,-1.8216367E3,-1.5086991E3,-1.2424012E3,2.6006186E5,2.9459822E5,3.3334416E5,4.0032647E5,4.7876828E5,5.293292E5,5.905787E5,2.553112E3,6.7595294E5,3.9759626E3,5.0019434E3,-2.2614434E3,-2.0791375E3,2.6019148E5,2.533879E5,3.0132675E5,3.0605666E5,3.1873947E5,3.5990438E5,3.6285947E5,4.022758E5,4.9451888E5,4.9558803E5,4.9224247E5,5.0978803E5,1.8145468E3,2.212119E3,8.726125E2,3.228326E3,-9.455465E2,-2.715008E2,1.3447084E2,-8.7774066E2,-6.5156757E2,1.4532812E2,-3.0535602E2,-5.383325E2,-3.0490115E2,-1.9080225E2,-4.6912827E1,-3.3765982E2,4.9734047E1,2.8120923E2,3.4058716E2,6.167291E2,9.610039E2,-1.201125E2,1.0791572E3,1.2253871E3,6.7928906E2,1.3442357E3,3.8621875E2,1.5595238E3],"split_indices":[2,0,3,3,0,1,1,1,2,0,0,0,1,0,0,0,0,0,0,0,2,4,0,0,0,2,0,0,3,0,0,0,0,1,1,3,4,4,4,0,2,3,3,4,0,0,0,0,0,0,0,0,0,0,0,0,0,0,0,0,0,0,0,0,0,0,0,0,0,0,0,0,0],"split_type":[0,0,0,0,0,0,0,0,0,0,0,0,0,0,0,0,0,0,0,0,0,0,0,0,0,0,0,0,0,0,0,0,0,0,0,0,0,0,0,0,0,0,0,0,0,0,0,0,0,0,0,0,0,0,0,0,0,0,0,0,0,0,0,0,0,0,0,0,0,0,0,0,0],"sum_hessian":[4.672E3,2.371E3,2.301E3,1.588E3,7.83E2,1.953E3,3.48E2,9.5E2,6.38E2,3.27E2,4.56E2,1.004E3,9.49E2,1.46E2,2.02E2,3.7E1,9.13E2,4.19E2,2.19E2,2.36E2,9.1E1,2.03E2,2.53E2,3.12E2,6.92E2,5.65E2,3.84E2,5.7E1,8.9E1,1.46E2,5.6E1,3.1E2,6.03E2,8.7E1,4E0,1.58E2,4.5E1,1.62E2,9.1E1,1.66E2,1.46E2,2.37E2,4.55E2,2.73E2,2.92E2,2.38E2,1.46E2,1E0,8.8E1,8.6E1,1E0,2E0,2E0,1.57E2,1E0,2.4E1,2.1E1,9.2E1,7E1,8.5E1,6E0,5.6E1,1.1E2,2.6E1,1.2E2,2.33E2,4E0,3.04E2,1.51E2,7E0,2.66E2,1E0,2.91E2],"tree_param":{"num_deleted":"0","num_feature":"5","num_nodes":"73","size_leaf_vector":"1"}},{"base_weights":[6.0412785E1,-1.3880962E4,1.4875404E4,-1.7467648E4,-4.961566E3,1.1644014E4,3.5000844E4,-1.9094945E4,-1.3961437E4,-8.024543E3,-1.8931179E3,8.602863E3,1.6152233E4,3.0973865E4,4.1951273E4,-2.1239686E4,-1.8357469E4,-1.5141887E3,-1.2132666E3,-1.0160142E4,-6.4147554E3,-3.417085E3,-9.643953E2,3.9693813E3,1.0155177E4,1.4701601E4,2.027336E4,2.6300305E4,3.335999E4,3.9375012E3,5.124008E3,-2.555456E3,-2.0516228E3,-1.8980643E3,-1.7166133E3,-1.0342313E3,-6.630147E2,-7.3298315E3,-5.615011E3,-5.5046875E1,-3.5500623E3,-1.5069231E3,1.7244939E2,2.242278E3,5.31654E3,9.186805E3,1.1182372E4,1.351402E4,1.6000228E3,1.8515077E3,2.2174406E4,2.648173E4,6.618875E2,9.26525E2,3.3474946E3,-7.403217E2,-3.9926563E1,-5.2402386E2,-7.260212E2,-5.627375E2,7.393073E2,-5.7175885E2,-3.1828076E2,-2.6688458E2,-1.1861835E2,7.466606E1,-5.1841473E2,1.2632128E2,2.9793527E2,3.0778925E2,5.7131366E2,9.2298553E2,2.014586E2,5.3402277E2,1.1254143E3,3.669078E2,1.3533878E3,2.2293992E3,5.646094E2,2.5468147E3,4.130475E3],"categories":[],"categories_nodes":[],"categories_segments":[],"categories_sizes":[],"default_left":[0,0,0,0,0,0,0,0,0,0,0,0,0,0,0,0,0,0,0,0,0,0,0,0,0,0,0,0,0,0,0,0,0,0,0,0,0,0,0,0,0,0,0,0,0,0,0,0,0,0,0,0,0,0,0,0,0,0,0,0,0,0,0,0,0,0,0,0,0,0,0,0,0,0,0,0,0,0,0,0,0],"id":25,"left_children":[1,3,5,7,9,11,13,15,17,19,21,23,25,27,29,31,33,-1,-1,35,37,39,41,43,45,47,49,51,53,-1,-1,-1,-1,-1,-1,-1,-1,55,57,59,61,63,65,67,69,71,73,75,-1,-1,77,79,-1,-1,-1,-1,-1,-1,-1,-1,-1,-1,-1,-1,-1,-1,-1,-1,-1,-1,-1,-1,-1,-1,-1,-1,-1,-1,-1,-1,-1],"loss_changes":[9.6537425E11,7.694785E10,1.469576E11,9.530016E9,6.488629E9,2.6650706E10,7.461208E9,1.4606664E9,9.993011E8,1.1243254E9,4.8782848E8,8.3678577E9,4.400857E9,1.375273E9,6.626181E8,3.90357E8,3.2600883E8,0E0,0E0,2.5960448E7,1.0520883E8,5.837133E7,1.3409888E8,6.744504E8,7.6763955E8,6.859735E8,2.6462618E8,8.538112E7,4.9905664E7,0E0,0E0,0E0,0E0,0E0,0E0,0E0,0E0,4.281856E7,3.0394368E7,2.906238E8,8.210214E7,5.161744E7,2.2225387E8,9.077178E7,1.2890931E8,1.2220416E8,1.1600282E8,1.1341824E7,0E0,0E0,5.597184E7,2.97984E7,0E0,0E0,0E0,0E0,0E0,0E0,0E0,0E0,0E0,0E0,0E0,0E0,0E0,0E0,0E0,0E0,0E0,0E0,0E0,0E0,0E0,0E0,0E0,0E0,0E0,0E0,0E0,0E0,0E0],"parents":[2147483647,0,0,1,1,2,2,3,3,4,4,5,5,6,6,7,7,8,8,9,9,10,10,11,11,12,12,13,13,14,14,15,15,16,16,19,19,20,20,21,21,22,22,23,23,24,24,25,25,26,26,27,27,28,28,37,37,38,38,39,39,40,40,41,41,42,42,43,43,44,44,45,45,46,46,47,47,50,50,51,51],"right_children":[2,4,6,8,10,12,14,16,18,20,22,24,26,28,30,32,34,-1,-1,36,38,40,42,44,46,48,50,52,54,-1,-1,-1,-1,-1,-1,-1,-1,56,58,60,62,64,66,68,70,72,74,76,-1,-1,78,80,-1,-1,-1,-1,-1,-1,-1,-1,-1,-1,-1,-1,-1,-1,-1,-1,-1,-1,-1,-1,-1,-1,-1,-1,-1,-1,-1,-1,-1],"split_conditions":[3.6065422E5,1.913128E5,6.8307475E5,1.178005E5,2.83511E5,5.2333122E5,8.4564456E5,7.727271E4,1.6566252E5,2.365353E5,3.1609503E5,4.548203E5,5.878031E5,7.7771744E5,9.22734E5,6.208438E4,9.706003E4,-1.5141887E3,-1.2132666E3,2.3893028E5,2.628015E5,2.7841528E5,3.431039E5,4.0032647E5,4.9132934E5,5.5662125E5,6.102386E5,7.7808625E5,7.6742275E5,3.9375012E3,5.124008E3,-2.555456E3,-2.0516228E3,-1.8980643E3,-1.7166133E3,-1.0342313E3,-6.630147E2,2.7197603E5,2.786199E5,2.784113E5,2.962135E5,3.1873947E5,3.6259075E5,3.826453E5,4.022758E5,5.094601E5,4.8388775E5,5.0978803E5,1.6000228E3,1.8515077E3,6.9361525E5,7.782729E5,6.618875E2,9.26525E2,3.3474946E3,-7.403217E2,-3.9926563E1,-5.2402386E2,-7.260212E2,-5.627375E2,7.393073E2,-5.7175885E2,-3.1828076E2,-2.6688458E2,-1.1861835E2,7.466606E1,-5.1841473E2,1.2632128E2,2.9793527E2,3.0778925E2,5.7131366E2,9.2298553E2,2.014586E2,5.3402277E2,1.1254143E3,3.669078E2,1.3533878E3,2.2293992E3,5.646094E2,2.5468147E3,4.130475E3],"split_indices":[0,1,0,4,0,1,0,1,2,0,0,0,1,2,0,0,0,0,0,4,1,3,0,0,1,0,2,1,4,0,0,0,0,0,0,0,0,0,1,4,3,4,1,0,2,4,2,0,0,0,2,0,0,0,0,0,0,0,0,0,0,0,0,0,0,0,0,0,0,0,0,0,0,0,0,0,0,0,0,0,0],"split_type":[0,0,0,0,0,0,0,0,0,0,0,0,0,0,0,0,0,0,0,0,0,0,0,0,0,0,0,0,0,0,0,0,0,0,0,0,0,0,0,0,0,0,0,0,0,0,0,0,0,0,0,0,0,0,0,0,0,0,0,0,0,0,0,0,0,0,0,0,0,0,0,0,0,0,0,0,0,0,0,0,0],"sum_hessian":[4.672E3,2.407E3,2.265E3,1.716E3,6.91E2,1.953E3,3.12E2,1.169E3,5.47E2,3.45E2,3.46E2,1.168E3,7.85E2,2.01E2,1.11E2,2.92E2,8.77E2,3.28E2,2.19E2,1.46E2,1.99E2,1.3E2,2.16E2,2.94E2,8.74E2,5.84E2,2.01E2,7.2E1,1.29E2,9.1E1,2E1,3.7E1,2.55E2,5.66E2,3.11E2,1.37E2,9E0,8.9E1,1.1E2,5E0,1.25E2,1.46E2,7E1,1.3E2,1.64E2,4.55E2,4.19E2,3.11E2,2.73E2,1.1E2,9.1E1,7.1E1,1E0,1E0,1.28E2,8.8E1,1E0,9.3E1,1.7E1,3E0,2E0,1.6E1,1.09E2,3E1,1.16E2,6.4E1,6E0,5.7E1,7.3E1,2.6E1,1.38E2,4.52E2,3E0,6E0,4.13E2,1E0,3.1E2,9E1,1E0,6.9E1,2E0],"tree_param":{"num_deleted":"0","num_feature":"5","num_nodes":"81","size_leaf_vector":"1"}},{"base_weights":[5.79064E1,-1.2695399E4,1.3198993E4,-1.5787143E4,-4.882985E3,9.828583E3,2.900892E4,-1.7414635E4,-1.3066941E4,-7.6902993E3,-2.2310464E3,6.4195483E3,1.2632169E4,2.2440307E4,3.4346547E4,-2.3118374E3,-1.7185742E4,-1.4230378E4,-1.1277733E3,-9.255987E3,-6.05822E3,-3.7341096E3,-1.3175952E3,2.4678677E3,8.0838047E3,1.1053846E4,1.4939515E4,2.0301557E4,2.5345186E3,3.2355466E3,4.2808643E3,-1.7931293E3,-1.6287861E3,-1.478638E3,-1.323338E3,-9.3925507E2,-5.845271E3,-6.1353145E3,-1.4598984E3,-5.255905E3,-3.3436519E3,-1.8415428E3,-5.79998E2,8.5483044E2,3.382945E3,6.0152876E3,8.527145E3,1.0245564E4,1.2030004E4,1.3882403E4,1.6219926E3,5.856906E2,2.0379628E3,-2.4429637E2,-6.4683636E2,-6.994987E2,-5.644122E2,-2.0831251E1,-1.8076562E2,-5.646559E2,-5.089271E1,-1.30112505E1,-3.637445E2,1.9923438E2,-1.8877827E2,-4.0123333E1,-3.6102563E2,4.1655728E2,6.220295E1,3.5258453E2,-3.178797E2,6.232929E2,-8.853813E2,8.3063715E2,1.076921E3,2.2524063E2,1.0308724E3,1.2075823E3,3.8352084E2,4.5934164E2,1.3941913E3],"categories":[],"categories_nodes":[],"categories_segments":[],"categories_sizes":[],"default_left":[0,0,0,0,0,0,0,0,0,0,0,0,0,0,0,0,0,0,0,0,0,0,0,0,0,0,0,0,0,0,0,0,0,0,0,0,0,0,0,0,0,0,0,0,0,0,0,0,0,0,0,0,0,0,0,0,0,0,0,0,0,0,0,0,0,0,0,0,0,0,0,0,0,0,0,0,0,0,0,0,0],"id":26,"left_children":[1,3,5,7,9,11,13,15,17,19,21,23,25,27,29,-1,31,33,-1,35,37,39,41,43,45,47,49,51,-1,-1,-1,-1,-1,-1,-1,-1,53,55,57,59,61,63,65,67,69,71,73,75,77,79,-1,-1,-1,-1,-1,-1,-1,-1,-1,-1,-1,-1,-1,-1,-1,-1,-1,-1,-1,-1,-1,-1,-1,-1,-1,-1,-1,-1,-1,-1,-1],"loss_changes":[7.833264E11,5.721614E10,1.22379076E11,7.294124E9,5.000655E9,1.8068636E10,1.3393822E10,9.865462E8,1.1717509E9,7.7951795E8,4.7287526E8,5.629358E9,3.6259103E9,6.286131E8,2.3384883E9,0E0,3.9275725E8,1.7178624E7,0E0,2.1951488E7,4.882739E7,6.0265984E7,8.31807E7,3.749778E8,5.0260787E8,3.675095E8,3.4331853E8,5.812224E6,0E0,0E0,0E0,0E0,0E0,0E0,0E0,0E0,3.2776E6,2.8081664E7,1.364437E6,4.348691E7,1.005472E8,2.6275488E7,4.838813E7,6.985884E7,1.640489E8,4.111593E8,1.5556608E8,1.519616E8,5.7319424E7,6.6965504E7,0E0,0E0,0E0,0E0,0E0,0E0,0E0,0E0,0E0,0E0,0E0,0E0,0E0,0E0,0E0,0E0,0E0,0E0,0E0,0E0,0E0,0E0,0E0,0E0,0E0,0E0,0E0,0E0,0E0,0E0,0E0],"parents":[2147483647,0,0,1,1,2,2,3,3,4,4,5,5,6,6,7,7,8,8,9,9,10,10,11,11,12,12,13,13,14,14,16,16,17,17,19,19,20,20,21,21,22,22,23,23,24,24,25,25,26,26,27,27,36,36,37,37,38,38,39,39,40,40,41,41,42,42,43,43,44,44,45,45,46,46,47,47,48,48,49,49],"right_children":[2,4,6,8,10,12,14,16,18,20,22,24,26,28,30,-1,32,34,-1,36,38,40,42,44,46,48,50,52,-1,-1,-1,-1,-1,-1,-1,-1,54,56,58,60,62,64,66,68,70,72,74,76,78,80,-1,-1,-1,-1,-1,-1,-1,-1,